
\data\
ngram 1=747
ngram 2=2551
ngram 3=3206

\1-grams:
-0.8911252	</s>
-99	<s>	-1.051234
-3.744215	กรอบ	-0.6987038
-3.744215	กระเทียม	-0.6972605
-3.329241	กระแส	-1.113677
-3.665034	กรุงศรี	-0.7759386
-3.665034	กรุงเทพ	-0.7759386
-3.239065	กลับ	-0.7777441
-3.598087	กลาง	-0.8444088
-3.744215	กลางวัน	-0.6967731
-3.329241	กล้วย	-0.8434671
-2.752989	กว่า	-1.395743
-3.665034	กสิกร	-0.7759386
-3.120965	กะเพรา	-0.6967258
-3.598087	กัญชา	-0.7853696
-2.438863	กัน	-1.186203
-2.771087	กับ	-0.8674534
-3.744215	การ	-0.6984532
-3.364003	กาแฟ	-0.7989478
-3.598087	กำกับ	-0.8410406
-3.841125	กิจกรรม	-0.599186
-2.278832	กิน	-0.9908258
-3.329241	กินข้าว	-0.6910082
-3.665034	กีฬา	-0.7748201
-1.92074	กี่	-1.312218
-2.938035	กี่โมง	-1.154963
-3.841125	กุมภา	-0.585663
-4.142155	กู๊ด	-0.3009987
-3.488942	ก็	-0.9509113
-3.081457	ก็ได้	-0.8539737
-3.212736	ก่อน	-0.6346372
-4.142155	ก่อนหน้า	-0.2413016
-4.142155	ก่อย	-0.2413016
-2.809716	ก๋วยเตี๋ยว	-0.829659
-3.364003	ขนม	-0.8125062
-3.598087	ขนาด	-0.8449884
-3.598087	ขวด	-0.8446125
-3.598087	ขวัญ	-0.8410406
-2.116849	ขอ	-1.088247
-2.397862	ของ	-0.7783926
-3.665034	ของขวัญ	-0.7748201
-4.142155	ขอบคุณ	-0.2413016
-3.267093	ขั้น	-0.748052
-2.702822	ขาย	-0.8210755
-3.598087	ขี้เกียจ	-0.8448005
-3.598087	ข้อมูล	-0.8402341
-3.164431	ข้าง	-0.8427438
-3.841125	ข้าม	-0.2364975
-2.780427	ข้าว	-0.9317101
-3.598087	ข้าวมัน	-0.8445498
-3.598087	ข้าวโพด	-0.8449884
-2.61711	คณะ	-1.241376
-2.819936	คน	-0.8185741
-4.142155	คนนี้	-0.3003407
-3.401792	ครั้ง	-0.6343732
-3.744215	คราว	-0.4042645
-3.598087	ครีมเมอรี่	-0.828701
-2.297057	ครึ่ง	-1.189868
-3.598087	คลุก	-0.8449884
-3.598087	คล้าย	-0.8443617
-3.744215	ควร	-0.6971662
-3.329241	ความ	-1.113426
-3.744215	คะน้า	-0.6982651
-3.164431	คะแนน	-0.9994674
-3.120965	คำนวณ	-1.321702
-3.665034	คิดส์ซาเนีย	-0.7759386
-3.598087	คิล	-0.8449884
-3.598087	คิว	-0.8445812
-3.401792	คืน	-0.5567602
-2.924671	คือ	-1.053998
-2.980787	คุย	-1.007727
-3.966063	คู่	-0.299399
-3.329241	ค่อย	-1.111306
-3.187912	ค่า	-0.977097
-3.744215	ค่ำ	-0.6967731
-2.874983	งบ	-0.9947084
-2.190332	งาน	-0.862114
-3.841125	งีบ	-0.6019348
-3.598087	ง่วง	-0.8449884
-3.187912	จบ	-0.8167911
-3.598087	จอ	-0.833679
-2.951823	จอง	-1.025872
-3.100762	จอด	-1.341655
-2.85212	จะ	-0.8605324
-3.598087	จัง	-0.7853696
-3.120965	จัด	-0.8680307
-2.874983	จันทร์	-0.6989289
-3.488942	จับ	-0.9532866
-2.966063	จาก	-0.6576599
-3.744215	จากนี้	-0.682573
-2.809716	จาม	-1.341388
-3.401792	จีน	-0.7657347
-3.239065	จุด	-0.7669091
-3.598087	จุล	-0.828701
-2.484143	จุฬา	-1.411582
-4.142155	จูเนีย	-0.2413016
-3.164431	จ่าย	-0.9975039
-3.100762	ฉัน	-1.055501
-2.456413	ฉาย	-0.9054218
-4.142155	ชอบ	-0.2997602
-4.142155	ชะตา	-0.300983
-4.142155	ชัท	-0.3005915
-4.142155	ชัฟเฟิล	-0.2413016
-3.540095	ชั่ว	-0.6450117
-2.217875	ชั่วโมง	-1.001894
-2.493795	ชั้น	-1.050167
-3.187912	ชาบู	-0.966192
-3.364003	ชาร์จ	-0.8018798
-3.966063	ชีวิต	-0.4173928
-2.799732	ชื่อ	-1.052208
-4.142155	ชูกา	-0.2413016
-3.187912	ช่วง	-1.249585
-3.081457	ช่วย	-1.077503
-3.329241	ช้า	-1.112265
-3.598087	ซอบิงโก	-0.8372798
-3.598087	ซอลบิง	-0.8443617
-3.329241	ซัก	-0.8389024
-3.598087	ซาวด์แทรก	-0.7853696
-3.598087	ซีท	-0.8431527
-3.488942	ซีรีย์	-0.6976689
-3.744215	ซีอิ๊ว	-0.698218
-2.718909	ซื้อ	-0.9219492
-3.665034	ซุเปอร์มาร์เก็ต	-0.7759386
-4.142155	ซูเปอ	-0.3009987
-3.598087	ซ้ำ	-0.5409283
-3.401792	ญี่ปุ่น	-0.7657347
-3.665034	ดนตรี	-0.7748201
-3.598087	ดรีม	-0.8449884
-4.142155	ดัง	-0.296356
-4.142155	ดังๆ	-0.298833
-3.329241	ดับ	-1.11374
-2.996027	ดาว	-0.6735358
-3.665034	ดิน	-0.7667323
-2.252853	ดี	-1.291584
-3.665034	ดีแทค	-0.7744256
-3.598087	ดึก	-0.833679
-3.598087	ดื่ม	-0.8449884
-3.062973	ดู	-0.7315472
-2.694997	ด้วย	-0.9198284
-2.966063	ตรง	-1.17925
-3.665034	ตรา	-0.7778068
-3.329241	ตลาด	-1.11006
-2.100762	ตอน	-1.076967
-3.598087	ตอนนี้	-0.7853696
-3.744215	ตอนเที่ยง	-0.6392416
-3.212736	ตอบ	-0.9536317
-3.665034	ตัด	-0.7780573
-2.735615	ตั้ง	-1.411374
-3.488942	ตั้งแต่	-0.6919161
-2.819936	ตั๋ว	-0.8737292
-3.045245	ตาม	-1.397549
-3.081457	ตาราง	-0.9188734
-3.329241	ตำ	-1.113458
-3.443185	ติด	-0.7385745
-3.401792	ติดต่อ	-0.763312
-3.187912	ตี	-0.7124048
-3.744215	ตีห้า	-0.6988918
-3.598087	ตึก	-0.8449884
-2.281817	ตื่น	-1.090813
-2.413801	ต่อ	-1.194952
-3.142155	ต่อไป	-0.5432698
-3.598087	ต่ำ	-0.8434199
-3.488942	ต้น	-0.6979514
-2.924671	ต้ม	-0.8893467
-2.405758	ต้อง	-1.043587
-3.443185	ถอย	-0.9995458
-3.540095	ถัด	-0.9001845
-3.744215	ถาม	-0.6988604
-2.650793	ถึง	-0.760797
-3.329241	ถูก	-0.8319561
-3.665034	ถ่ายรูป	-0.7667323
-3.744215	ถ้า	-0.682573
-3.598087	ทน	-0.8449884
-3.598087	ทรี	-0.842665
-3.598087	ทอง	-0.844299
-3.598087	ทองดี	-0.8449884
-3.164431	ทอด	-0.7248425
-3.239065	ทั้ง	-0.7716379
-3.744215	ทั้งวัน	-0.6392416
-2.841125	ทั้งหมด	-1.071212
-2.470057	ทาง	-1.277255
-2.173672	ทำ	-1.097412
-3.028211	ทำงาน	-0.8437785
-3.212736	ที	-1.170721
-3.598087	ทีม	-0.8434199
-1.585852	ที่	-1.176503
-3.598087	ที่นั่ง	-0.7853696
-3.239065	ที่นี่	-0.9274735
-3.665034	ที่พัก	-0.7776031
-4.142155	ที่แล้ว	-0.2413016
-2.55109	ทุก	-1.207981
-3.841125	ทุกวัน	-0.5423316
-4.142155	ทุ่ง	-0.2413016
-2.630271	ทุ่ม	-0.7483697
-3.598087	ทูฟาสต์	-0.8449884
-3.598087	ทูสลีบ	-0.8421925
-3.598087	ทูเดย์	-0.8444244
-3.028211	ธนาคาร	-0.7768971
-3.329241	ธุระ	-0.7754689
-2.951823	นอก	-1.489935
-2.382487	นอน	-1.304534
-3.598087	นอนได้	-0.8441265
-2.040064	นะ	-2.040776
-4.142155	นักร้อง	-0.3009987
-3.598087	นักเรียน	-0.8417668
-2.050488	นัด	-0.8146439
-3.297057	นับ	-0.8739483
-2.460913	นั่ง	-0.8739579
-3.598087	นั้น	-0.8449571
-2.187912	นาที	-1.003321
-2.980787	นาน	-1.172287
-3.744215	นำ	-0.6988918
-3.598087	นิติ	-0.828701
-2.579862	นี่	-1.199744
-1.885677	นี้	-1.023069
-3.744215	นี้่ิ	-0.6961591
-2.657855	นึง	-0.9686099
-2.830401	น่า	-1.153568
-2.761944	น้ำ	-1.012865
-3.744215	น้ำตาล	-0.6976374
-3.841125	น้ำปลา	-0.6007274
-3.045245	บน	-1.397486
-3.401792	บริการ	-0.7779634
-3.598087	บรูซ	-0.8449884
-3.598087	บลีช	-0.8449884
-3.598087	บอก	-0.8422871
-3.164431	บัญชี	-0.9827079
-3.187912	บัตร	-0.9771441
-3.598087	บัว	-0.8449884
-2.61711	บาท	-1.16734
-3.598087	บิงซู	-0.8449884
-3.598087	บิล	-0.843577
-3.329241	บิวตี้	-1.11374
-3.062973	บี	-0.8225363
-3.598087	บีทีเอส	-0.8447378
-3.329241	บีสต์	-1.097546
-3.364003	บุฟเฟต์	-0.7902619
-2.68731	บ่าย	-1.011908
-1.604336	บ้าง	-2.476487
-3.364003	บ้าน	-0.7510062
-4.142155	บ๊ายบาย	-0.2413016
-2.980787	ปฎิทิน	-0.9827932
-3.665034	ประชาสัมพันธ์	-0.7759386
-2.518906	ประชุม	-0.7228762
-3.665034	ประดับ	-0.7748201
-3.665034	ประทับ	-0.7780573
-3.329241	ประมาณ	-1.112611
-3.665034	ประวัติ	-0.7764103
-3.598087	ประเภท	-0.8341287
-3.598087	ปลั๊ก	-0.8448475
-2.217875	ปลุก	-0.9664015
-3.488942	ปะ	-0.8945141
-3.665034	ปัง	-0.7695354
-3.598087	ปังเย็น	-0.828701
-3.598087	ปาร์ค	-0.8441421
-3.841125	ปาร์ตี้	-0.5423316
-2.657855	ปิด	-1.187674
-3.062973	ปิ้ง	-0.9183064
-3.329241	ปี	-0.8321819
-3.598087	ป๊อปคอร์น	-0.8431527
-3.164431	ผม	-0.9978973
-3.329241	ผลไม้	-0.8405031
-3.744215	ผักกาด	-0.6960487
-2.643844	ผัด	-0.9906722
-3.744215	ผัดซีอิ๊ว	-0.693726
-3.665034	ผู้ใหญ่	-0.7772738
-3.665034	ผ่าน	-0.7672141
-3.665034	ผ้า	-0.7780573
-4.142155	ฝน	-0.2413016
-3.401792	ฝาก	-1.039652
-3.598087	พร	-0.8446282
-3.598087	พรจากฟ้า	-0.8433256
-3.598087	พระเกี้ยว	-0.8421925
-3.744215	พริก	-0.6976374
-3.744215	พริกไทย	-0.6976374
-3.598087	พรีวิเลจ	-0.8445812
-3.598087	พรีเมี่ยม	-0.8438439
-2.874983	พรุ่ง	-1.272986
-2.180734	พรุ่งนี้	-0.9579608
-3.401792	พฤหัส	-0.7718126
-4.142155	พอ	-0.2991318
-4.142155	พอส	-0.2413016
-3.488942	พะโล้	-0.6381806
-3.841125	พัก	-0.5993908
-3.598087	พากย์	-0.8444715
-3.665034	พาณิชย์	-0.7759386
-2.630271	พารากอน	-0.8188496
-3.329241	พาราโบลา	-0.8227268
-3.598087	พิกัด	-0.8372798
-3.665034	พิการ	-0.7744256
-3.401792	พิเศษ	-0.7659602
-2.874983	พุธ	-0.597635
-3.744215	พูด	-0.6987038
-3.598087	ฟรี	-0.8431527
-3.598087	ฟรุตตี้	-0.8442363
-3.598087	ฟัง	-0.8438283
-3.598087	ฟันขาว	-0.8444244
-3.401792	ฟิตเนส	-0.7578845
-3.598087	ฟิฟตี้	-0.8449884
-3.598087	ฟ้า	-0.8433256
-2.874983	ภาค	-0.9119313
-3.598087	มรณะ	-0.8445812
-3.598087	มหิต	-0.828701
-3.598087	มะม่วง	-0.8443303
-3.062973	มะรืน	-1.374523
-3.744215	มักโรนี	-0.6973861
-3.744215	มังสวิรัติ	-0.6967731
-2.951823	มัน	-1.038251
-2.349763	มั้ย	-2.033693
-2.735615	มา	-0.9595007
-3.598087	มาก	-0.8443303
-3.164431	มาบุญครอง	-0.8298374
-2.874983	มาม่า	-0.8482451
-4.142155	มาย	-0.3009987
-4.142155	มารูน	-0.3009987
-3.598087	มิติ	-0.8341608
-3.598087	มิยาบิ	-0.8448475
-1.431192	มี	-1.1961
-3.598087	มีนา	-0.582072
-3.744215	มื้อ	-0.6932822
-3.598087	มูฟวี่	-0.8434199
-3.598087	ม้้ย	-0.7853696
-3.598087	ย	-0.8449884
-2.68731	ยกเลิก	-0.9448684
-3.598087	ยักษ์	-0.8441421
-3.164431	ยัง	-1.278456
-3.081457	ยังไง	-1.301999
-3.443185	ยา	-0.7335473
-2.924671	ยาว	-0.9447795
-3.598087	ยาโยอิ	-0.8413723
-3.598087	ยิน	-0.8448318
-2.996027	ยี่	-1.443622
-3.841125	ยี่สิบ	-0.5992333
-3.744215	ยืนยัน	-0.6979514
-3.100762	ยู	-0.6516705
-3.329241	ย่อ	-1.112202
-3.665034	ย่าง	-0.7672141
-3.598087	ย้าย	-0.8422871
-2.752989	รถ	-0.8776793
-3.212736	รส	-0.7921534
-3.744215	รหัส	-0.6975589
-3.598087	รอ	-0.8446438
-3.665034	รองเท้า	-0.7773993
-2.390106	รอบ	-0.9575489
-3.045245	ระหว่าง	-0.8434357
-3.598087	รัก	-0.8449884
-2.911706	รับ	-0.8744273
-2.540095	ราคา	-1.132344
-3.329241	รางวัล	-0.8363704
-2.951823	ราย	-1.490672
-3.488942	รายการ	-0.6870204
-3.488942	รายงาน	-0.6939794
-3.598087	รายชื่อ	-0.8448945
-3.329241	รายได้	-0.8447849
-3.598087	ริม	-0.8444088
-4.142155	ริฮันนา	-0.2413016
-3.598087	รีบ	-0.840424
-3.164431	รีวิว	-0.9974409
-3.598087	รึยัง	-0.7853696
-3.598087	รุจิศรี	-0.8441735
-3.297057	ร้อง	-0.8150992
-2.874983	ร้อย	-1.567152
-1.74858	ร้าน	-1.178911
-3.011821	ลด	-0.7118029
-3.966063	ลบ	-0.4758515
-3.744215	ลวก	-0.6392416
-3.598087	ลอย	-0.8449884
-2.951823	ละ	-1.199857
-3.665034	ละหมาด	-0.7744256
-2.503665	ลา	-1.349844
-3.744215	ลางาน	-0.6973547
-3.665034	ลาน	-0.7779008
-3.665034	ลิฟท์	-0.7776814
-3.598087	ลิโด้	-0.8431527
-3.164431	ลืม	-1.276116
-3.598087	ลุก	-0.8431998
-3.329241	ลุง	-0.8335665
-4.142155	ลูก	-0.3009987
-3.598087	ล็อบสเตอร์	-0.8444244
-3.598087	ล่วง	-0.8444088
-3.443185	ล่า	-0.9983219
-3.329241	ล่าสุด	-0.7834435
-2.752989	วอล	-0.9252788
-3.665034	วอล์ค	-0.7752458
-3.120965	วัตถุดิบ	-1.313603
-1.880892	วัน	-1.124396
-3.540095	วันที่	-0.6517701
-2.31608	วันนี้	-0.9071583
-3.401792	วันศุกร์	-0.755846
-3.598087	วันหยุด	-0.8394102
-3.744215	วันเสาร์	-0.6932822
-3.744215	วันไหน	-0.6880328
-3.488942	วาน	-0.9378455
-3.744215	วานซืน	-0.6960487
-3.212736	วิธี	-0.9509429
-3.120965	วิธีทำ	-0.8828184
-3.841125	วินาที	-0.5423316
-4.142155	วิฟ	-0.284633
-3.598087	วิลลิส	-0.8443617
-2.657855	วิศวะ	-1.016376
-3.212736	ว่า	-0.9288946
-2.799732	ว่าง	-0.8218911
-3.598087	ศาลา	-0.8449884
-3.841125	ศิลปิน	-0.300936
-2.924671	ศุกร์	-0.7975029
-3.401792	ศูนย์	-0.7747728
-3.665034	สกาย	-0.7780573
-3.598087	สคิป	-0.8446125
-3.598087	สตางค์	-0.8413723
-3.598087	สตาร์บัค	-0.8434042
-2.874983	สตาร์วอร์	-0.8797333
-4.142155	สต็อป	-0.2413016
-3.081457	สถานี	-1.069782
-3.598087	สน	-0.8449884
-3.187912	สมัคร	-0.9745185
-3.045245	สมาชิก	-0.8254706
-3.598087	สยอง	-0.8449884
-3.401792	สยาม	-0.7773993
-3.164431	สระ	-1.278456
-3.488942	สร้าง	-0.9514316
-4.142155	สวิฟ	-0.2413016
-3.598087	สวีท	-0.8449884
-2.339381	สอง	-0.7714683
-3.120965	สอน	-1.319298
-3.598087	สอบ	-0.7853696
-3.598087	สะสาง	-0.8341608
-3.540095	สัก	-0.6493921
-3.329241	สับ	-1.111022
-2.727181	สัปดาห์	-1.41686
-3.045245	สั่ง	-0.8246838
-3.329241	สาขา	-0.7833713
-2.430348	สาม	-0.7669518
-3.329241	สามย่าน	-0.8433728
-3.443185	สาย	-0.7293131
-3.164431	สำหรับ	-0.8400283
-3.841125	สิงหา	-0.585663
-2.091002	สิบ	-0.9853906
-3.401792	สิบเอ็ด	-0.5610119
-3.744215	สิ้น	-0.6984688
-2.484143	สี่	-0.894494
-3.744215	สุกี้	-0.6988918
-2.413801	สุด	-0.8706585
-3.488942	สุดท้าย	-0.6943434
-3.164431	สุภาพ	-0.9974409
-4.142155	สุ่ม	-0.2997602
-3.329241	สูง	-1.112265
-3.120965	สูตร	-1.319014
-3.966063	สเตย์	-0.2412656
-2.809716	สเต็ก	-0.9609691
-2.819936	สแควร์	-1.1434
-3.239065	ส่ง	-0.9264661
-3.164431	ส่วน	-1.278331
-3.329241	ส้ม	-1.11374
-3.598087	ส้มตำ	-0.8448005
-2.488942	หก	-1.946121
-1.953226	หนัง	-1.308774
-3.364003	หนังสือ	-0.802265
-3.665034	หนี	-0.7779008
-2.744215	หนึ่ง	-0.867551
-2.297057	หน่อย	-1.783893
-2.799732	หน้า	-0.89096
-3.239065	หมด	-0.7162982
-3.164431	หมอ	-0.6580837
-2.789972	หมู	-0.918606
-3.488942	หมูสับ	-0.8945141
-3.744215	หยุด	-0.2393935
-3.239065	หรือ	-0.7773992
-2.980787	หลัง	-0.6871008
-3.598087	หลับ	-0.8442833
-3.142155	หวาน	-0.669803
-2.951823	หอ	-1.20208
-3.744215	หอย	-0.6986725
-3.120965	หา	-1.32189
-3.665034	หาย	-0.7779791
-3.598087	ห่าง	-0.8449884
-2.886882	ห้อง	-1.266326
-2.212736	ห้า	-0.9439024
-3.966063	ห้าม	-0.4763849
-4.142155	อกหัก	-0.2413016
-3.598087	อด	-0.8449884
-2.35328	อยาก	-1.319276
-2.293966	อยู่	-1.231526
-3.164431	อย่า	-1.278456
-3.187912	อย่าง	-0.819472
-3.045245	อย่างไร	-1.041642
-2.752989	อร่อย	-1.165553
-3.062973	ออก	-0.8223613
-3.841125	ออฟ	-0.3975329
-3.598087	ออสการ์	-0.8431527
-2.727181	อะ	-1.06928
-1.706788	อะไร	-1.336463
-2.951823	อะไรวอล	-0.7571158
-3.164431	อักษร	-0.975481
-3.081457	อังคาร	-0.5972779
-3.329241	อันดับ	-1.113207
-3.028211	อันเดอร์วอเตอร์เวิล์ด	-0.8549039
-3.841125	อัลบั้ม	-0.388797
-2.938035	อาทิตย์	-0.8738098
-3.364003	อาบ	-1.078429
-4.142155	อาย	-0.3009674
-3.598087	อายุ	-0.8442206
-2.133555	อาหาร	-0.9623732
-3.598087	อินเซปชั่น	-0.8417668
-1.970428	อีก	-1.147381
-4.142155	อีกรอบ	-0.2413016
-3.744215	อีเมล	-0.6955126
-3.744215	อีเมล์	-0.6955126
-3.062973	อื่น	-0.6781729
-3.665034	อุปกรณ์	-0.7780573
-3.329241	อเมซอน	-0.8282944
-3.598087	อ่าน	-0.8449101
-3.665034	อ้อม	-0.7779791
-3.329241	อ้อย	-0.8343053
-4.142155	อ้าว	-0.2413016
-3.598087	ฮันนี่มูน	-0.8449884
-3.329241	ฮาจิบัง	-0.839648
-3.744215	เกลือ	-0.6976374
-3.401792	เกาหลี	-0.7657347
-3.329241	เกาเหลา	-0.8320206
-3.598087	เกิน	-0.8436713
-3.598087	เกี่ยว	-0.8443617
-3.062973	เก้า	-0.9282612
-3.598087	เขต	-0.8393467
-3.665034	เขียน	-0.7748201
-3.744215	เขียว	-0.6986569
-2.809716	เข้า	-0.8941227
-3.364003	เครดิต	-0.8085557
-3.329241	เครป	-0.8445028
-3.665034	เครือ	-0.7695354
-3.212736	เครื่อง	-0.638918
-3.598087	เคลียร์	-0.8447378
-3.598087	เคเอฟซี	-0.8441735
-2.819936	เงิน	-0.8182643
-3.443185	เงียบ	-0.5383258
-3.329241	เจฟเฟอร์	-0.8298536
-3.045245	เจียว	-0.6330914
-3.062973	เจ็ด	-1.088278
-3.665034	เจ้า	-0.7764103
-2.951823	เจ๊	-0.928369
-3.598087	เชดส์	-0.8449884
-4.142155	เชพ	-0.3009674
-3.239065	เชื่อม	-0.9284787
-3.329241	เช็ค	-0.8422083
-3.665034	เช่า	-0.7744256
-2.718909	เช้า	-0.7438329
-4.142155	เซ	-0.3009987
-3.598087	เซงเซียมอี๊	-0.8441735
-3.665034	เซนเตอร์	-0.7752458
-3.598087	เซอเคิล	-0.8441735
-3.598087	เซเว่น	-0.839854
-3.329241	เซ็นทรัลเวิลด์	-0.8268602
-2.924671	เดอะ	-0.8010371
-2.938035	เดือน	-0.8748708
-3.401792	เด็ก	-0.7735406
-2.579862	เด็ด	-1.263055
-2.524107	เตือน	-0.7187701
-3.744215	เถอะ	-0.6392416
-4.142155	เทค	-0.3009987
-3.598087	เทพ	-0.8449884
-2.529371	เที่ยง	-1.0235
-4.142155	เทเลอร์	-0.3009987
-2.513766	เท่า	-1.631837
-3.401792	เท่าไร	-0.7138547
-2.694997	เท่าไหร่	-1.68846
-3.598087	เนย	-0.8413723
-3.329241	เนี่ย	-1.054215
-3.841125	เนื้อ	-0.6007903
-3.364003	เบอร์	-0.8126315
-3.665034	เบา	-0.3450968
-3.744215	เปรี้ยว	-0.6986569
-3.164431	เปลี่ยน	-0.5956206
-3.841125	เปล่า	-0.5423316
-3.598087	เปอร์เซ็นต์	-0.7853696
-2.643844	เปิด	-0.9322732
-2.413801	เป็น	-1.009599
-2.5347	เพลง	-0.474602
-3.966063	เพลย์ลิส	-0.4173928
-3.598087	เพลลิสต์	-0.8438283
-3.329241	เพลิง	-0.6364486
-2.630271	เพิ่ม	-0.9364778
-3.120965	เพื่อน	-0.7701256
-3.598087	เฟ้ย	-0.7853696
-2.672333	เมนู	-0.9396875
-3.665034	เมล์	-0.7779947
-3.142155	เมื่อ	-0.752582
-3.598087	เมื่อคืน	-0.8432942
-3.364003	เมื่อวาน	-0.6463389
-3.598087	เมื่อไหร่	-0.7853696
-2.809716	เมเจอร์	-1.04547
-4.142155	เยส	-0.2413016
-3.164431	เยอะ	-0.8387754
-2.830401	เย็น	-0.6770535
-3.841125	เย็นนี้	-0.6011669
-4.142155	เรด	-0.2413016
-3.598087	เรตติ้ง	-0.8442206
-2.863401	เรา	-0.9159988
-3.187912	เริ่ม	-0.6411613
-3.239065	เรียก	-0.9277722
-3.329241	เรียง	-1.11006
-2.938035	เรียน	-0.7755997
-3.665034	เรียนพิเศษ	-0.7759386
-3.598087	เรือ	-0.8372798
-2.031565	เรื่อง	-1.207391
-3.267093	เร็ว	-0.6784856
-3.598087	เลย	-0.8442833
-3.665034	เลิก	-0.540516
-4.142155	เลิฟ	-0.3006855
-3.744215	เลี้ยง	-0.6988134
-2.899117	เลื่อน	-0.8827116
-3.598087	เลโก	-0.8449884
-2.771087	เล่น	-0.804689
-2.657855	เวลา	-0.7971224
-4.142155	เววเวต	-0.2413016
-3.401792	เวียดนาม	-0.7657347
-3.598087	เศรษฐศาสตร์	-0.828701
-3.744215	เสนอ	-0.6988918
-3.665034	เสริมสวย	-0.7695354
-3.665034	เสร็จ	-0.7762531
-3.011821	เสาร์	-0.6428902
-3.665034	เสียง	-0.4818178
-3.598087	เสือ	-0.8448788
-3.329241	เส้น	-1.112469
-3.598087	เหมือน	-0.8430426
-3.329241	เหรอ	-0.7848484
-3.598087	เหรียญ	-0.8449884
-3.364003	เหลือ	-0.6597679
-3.329241	เอ	-0.8411828
-3.164431	เอง	-0.8424289
-3.598087	เอช	-0.8438439
-3.665034	เอทีเอม	-0.7779008
-3.598087	เอน	-0.8432942
-2.951823	เอฟ	-0.9149358
-4.142155	เอฟเวอรี่ไทม์	-0.2413016
-3.598087	เอมอาที	-0.8447378
-2.951823	เอส	-1.490876
-3.841125	เอา	-0.3962933
-3.598087	เอ็กซ์	-0.8431527
-3.401792	เอ็ด	-1.033272
-3.164431	เอ็ม	-0.9810759
-3.598087	เอ็มเค	-0.8413723
-4.142155	เฮท	-0.3006855
-3.744215	แกง	-0.6988918
-4.142155	แคนท์	-0.3009987
-3.744215	แคนเซิล	-0.6950864
-2.924671	แคลอรี่	-0.8027698
-4.142155	แค่	-0.2953421
-3.744215	แค่ไหน	-0.6392416
-2.924671	แจ้ง	-1.517213
-3.164431	แดง	-0.8408827
-4.142155	แต่ง	-0.2413016
-3.598087	แถม	-0.8443146
-2.484143	แถว	-0.9579229
-3.665034	แท็กซี่	-0.7759386
-3.329241	แนว	-0.8363704
-2.780427	แนะนำ	-1.196222
-2.545558	แบบ	-0.8281482
-3.598087	แบ็ทแมน	-0.8445812
-2.637005	แปด	-1.330907
-3.598087	แปป	-0.8441421
-3.665034	แผนที่	-0.7771326
-3.598087	แพง	-0.8434199
-3.598087	แพทย์	-0.7853696
-3.598087	แฟลช	-0.7853696
-2.771087	แรก	-0.8540094
-4.142155	แรนดอม	-0.2997602
-4.142155	แรนด้อม	-0.2997602
-3.665034	แลก	-0.7774934
-2.809716	แลนด์	-0.9391829
-3.598087	และ	-0.8448945
-2.360399	แล้ว	-0.9479321
-3.665034	แว่น	-0.7748201
-3.329241	แสดง	-0.8393309
-4.142155	แสตมป์	-0.2413016
-3.744215	แห้ง	-0.6392416
-3.329241	แอนด์	-1.113426
-3.598087	แอม	-0.8449884
-3.598087	แอมปาร์ค	-0.8428853
-3.598087	แอล	-0.828701
-3.598087	แอ็คชั่น	-0.8410406
-3.045245	แฮรี่พอตเตอร์	-1.111589
-2.524107	โกวาจี	-0.6993684
-3.598087	โฆษณา	-0.8445812
-4.142155	โจอี้บอย	-0.2413016
-3.598087	โจ๊ก	-0.8448945
-2.951823	โซน	-1.195408
-3.598087	โซฟา	-0.8431527
-3.598087	โดน	-0.8433256
-3.598087	โทร	-0.8444244
-3.665034	โทรศัพท์	-0.7748201
-3.239065	โบว์ลิ่ง	-0.7597339
-3.966063	โปรด	-0.4173928
-3.744215	โปรเจค	-0.6932187
-4.142155	โปรแกรม	-0.2413016
-2.874983	โปรโมชัน	-0.8118297
-3.364003	โปรโมชั่น	-0.8004968
-3.598087	โฟร์	-0.842665
-1.732222	โมง	-1.22576
-2.325913	โรง	-1.281664
-3.598087	โรงหนัง	-0.8444244
-3.598087	โรตี	-0.8448945
-3.598087	โรแมนติก	-0.8410406
-3.329241	โลแกน	-0.8410881
-3.665034	โอ	-0.7777755
-3.598087	โอว	-0.8416406
-3.598087	โอโตยะ	-0.8413723
-2.899117	ใกล้	-0.8124654
-3.028211	ใคร	-0.775907
-3.598087	ใจ	-0.8341608
-3.598087	ใช่	-0.8413723
-2.672333	ใช้	-1.169605
-3.665034	ใต้	-0.7780573
-2.409761	ใน	-0.8728398
-3.028211	ใส่	-0.7115323
-2.924671	ใหม่	-0.7682329
-2.761944	ให้	-0.8327411
-4.142155	ไกล	-0.2413016
-2.899117	ไก่	-0.8058341
-2.524107	ไข่	-0.9869649
-3.164431	ไง	-1.219025
-2.116849	ได้	-0.9719048
-3.598087	ได้มั้ย	-0.7853696
-3.598087	ได้ไหม	-0.8441578
-2.841125	ไทย	-0.8462314
-4.142155	ไนท์	-0.2413016
-2.176013	ไป	-0.7873511
-3.598087	ไผ่	-0.8449884
-3.598087	ไผ่ทอง	-0.8442363
-3.239065	ไฟ	-0.7744098
-3.401792	ไฟฟ้า	-0.7751512
-4.142155	ไฟว์	-0.2413016
-2.665034	ไม่	-0.8171862
-3.598087	ไม่ว่าง	-0.8448475
-3.598087	ไม้	-0.8446125
-2.911706	ไร	-1.170736
-3.598087	ไวไฟ	-0.844346
-3.598087	ไส้	-0.839854
-1.603079	ไหน	-1.298282
-2.068436	ไหม	-1.838249
-3.744215	ไหม้	-0.6392416
-2.598087	ไหร่	-1.477927
-3.329241	ไห้	-0.8417037
-3.267093	ไอ	-0.7529674
-3.045245	ไอติม	-0.8444089
-3.665034	ไอที	-0.7695354
-3.598087	ไอรอนแมน	-0.828701
-3.598087	ไอเดีย	-0.8441735
-3.598087	ไอแม็กซ์	-0.8441578

\2-grams:
-2.495891	<s> กระแส	0
-2.796921	<s> กล้วย	-0.60206
-2.370952	<s> กิน	-0.5942013
-2.461129	<s> กี่	-0.507918
-3.575072	<s> กู๊ด
-2.495891	<s> ก๋วยเตี๋ยว	-0.7231036
-1.259102	<s> ขอ	0.007653356
-2.876102	<s> ของ	-0.7611179
-2.428944	<s> ขั้น	0
-2.796921	<s> ขี้เกียจ	0
-3.097951	<s> ข้าม
-2.097951	<s> ข้าว	-0.8061801
-2.3198	<s> คณะ	-0.3590218
-2.796921	<s> ครีมเมอรี่	0
-2.274042	<s> คำนวณ	0
-2.876102	<s> คิดส์ซาเนีย	0
-2.3198	<s> คุย	-0.9013353
-2.344623	<s> ค่า	0
-2.213345	<s> งาน	-0.7608997
-2.796921	<s> ง่วง	0
-2.3198	<s> จอง	-0.4357285
-2.876102	<s> จอด	0.5642715
-2.796921	<s> จะ	-0.7814289
-2.973012	<s> จับ	0.2552725
-2.097951	<s> จาม	-0.750999
-2.876102	<s> จุด	-0.6368221
-2.3198	<s> ฉัน	-0.6159958
-3.575072	<s> ชัท
-3.575072	<s> ชัฟเฟิล
-2.177132	<s> ชั้น	-0.45364
-2.876102	<s> ชาร์จ	-0.5672979
-2.344623	<s> ช่วง	0
-2.23265	<s> ช่วย	0
-2.01877	<s> ซื้อ	-0.3734108
-2.876102	<s> ซุเปอร์มาร์เก็ต	0
-3.575072	<s> ดัง
-3.575072	<s> ดังๆ
-3.575072	<s> ดู
-2.796921	<s> ตลาด	0.2688453
-2.194861	<s> ตอน	-0.7007986
-2.876102	<s> ตัด	0
-2.069922	<s> ตั้ง	0.1845242
-3.097951	<s> ตี	-0.5351132
-1.796921	<s> ตื่น	-0.4111013
-2.671982	<s> ต่อ	-0.830583
-2.671982	<s> ต้ม	-0.69897
-2.973012	<s> ถาม	0
-2.160099	<s> ทาง	-0.8513832
-1.884876	<s> ทำ	-0.5588085
-1.597349	<s> ที่	-1.036649
-2.398981	<s> ที่นี่	0
-2.796921	<s> ทูฟาสต์	0
-2.177132	<s> ธนาคาร	0
-2.01877	<s> นอน	-1.105439
-3.575072	<s> นักร้อง
-2.796921	<s> นักเรียน	0
-1.748998	<s> นัด	-0.7732229
-2.62083	<s> นับ	-0.60206
-2.876102	<s> นั่ง	-0.7577581
-2.796921	<s> บรูซ	0
-2.796921	<s> บลีช	0
-2.796921	<s> บอก	0
-2.796921	<s> บัตร	-0.6802878
-2.796921	<s> บัว	0
-2.796921	<s> บิวตี้	0.2688453
-3.097951	<s> บ่าย	-0.3849319
-2.876102	<s> ประชาสัมพันธ์	0
-2.252853	<s> ประชุม	-0.5484772
-2.876102	<s> ประทับ	0
-1.826884	<s> ปลุก	-0.6644056
-2.796921	<s> ปังเย็น	0
-3.274042	<s> ปิด
-2.671982	<s> ผัด	-0.3786348
-2.973012	<s> ผัดซีอิ๊ว	0
-2.796921	<s> พรจากฟ้า	0
-2.069922	<s> พรุ่ง	0.04830468
-1.682978	<s> พรุ่งนี้	-0.8188916
-3.575072	<s> พอ
-3.575072	<s> พอส
-2.796921	<s> พาราโบลา	-0.60206
-2.796921	<s> พุธ	-0.539912
-2.973012	<s> พูด	0
-2.876102	<s> ฟิตเนส	-0.5440681
-2.495891	<s> มะรืน	0.2662679
-2.796921	<s> มัน	-0.7579479
-2.274042	<s> มา	-0.8495072
-1.041046	<s> มี	-0.7756912
-2.973012	<s> มื้อ	0
-1.876102	<s> ยกเลิก	-0.2032435
-2.973012	<s> ยืนยัน	0
-2.796921	<s> ย้าย	0
-2.876102	<s> รถ	-0.7367586
-2.194861	<s> ระหว่าง	0
-2.575072	<s> รับ	-0.9087671
-2.973012	<s> รายการ	-0.4771213
-1.71774	<s> ร้าน	-0.8201486
-3.274042	<s> ลด
-3.274042	<s> ลบ	0
-2.729974	<s> ลา	-0.20412
-2.876102	<s> ลาน	0
-2.796921	<s> ลุก	0
-2.796921	<s> ลุง	-0.60206
-1.640574	<s> วัน	-0.6429397
-3.097951	<s> วันที่	-0.4259688
-1.850796	<s> วันนี้	-0.7338686
-2.796921	<s> วันศุกร์	-0.544068
-2.876102	<s> ศูนย์	-0.5440681
-2.876102	<s> สกาย	0
-2.796921	<s> สคิป	0
-2.495891	<s> สตาร์วอร์	-0.594042
-3.575072	<s> สต็อป
-2.876102	<s> สถานี	-0.6766936
-2.671982	<s> สร้าง	0
-2.274042	<s> สอน	0
-1.962288	<s> สัปดาห์	-0.8020634
-2.62083	<s> สิบ	-0.6219281
-3.097951	<s> สี่	-0.5158738
-2.796921	<s> สุภาพ	-0.447158
-3.575072	<s> สุ่ม
-2.796921	<s> ส้มตำ	0
-1.518167	<s> หนัง	-1.74462
-2.973012	<s> หนึ่ง	-0.6409781
-2.796921	<s> หมู	-0.7895807
-2.973012	<s> หยุด
-2.62083	<s> หลัง	-0.6112679
-2.274042	<s> หา	0
-2.177132	<s> ห้อง	-0.6918697
-3.274042	<s> ห้าม	0
-1.558039	<s> อยาก	-0.5794265
-2.3198	<s> อย่า	0
-2.973012	<s> อะไร	-0.6927657
-2.796921	<s> อะไรวอล	-0.763428
-2.177132	<s> อันเดอร์วอเตอร์เวิล์ด	0
-2.398981	<s> อาทิตย์	-0.5894709
-2.876102	<s> อาบ	0.3010299
-1.404811	<s> อีก	-0.3887143
-2.796921	<s> อเมซอน	-0.60206
-2.495891	<s> เกาเหลา	0
-2.495891	<s> เครป	0
-2.796921	<s> เคลียร์	0
-3.274042	<s> เงียบ
-2.796921	<s> เจฟเฟอร์	-0.60206
-2.671982	<s> เช็ค	-0.5862657
-3.097951	<s> เช้า	-0.5801582
-2.796921	<s> เซงเซียมอี๊	0
-2.796921	<s> เดือน	-0.05799192
-2.3198	<s> เตือน	-0.5529315
-2.796921	<s> เที่ยง	-0.8144292
-2.973012	<s> เท่าไร	-0.5228788
-2.973012	<s> เบา	-0.03698356
-2.973012	<s> เปลี่ยน	-0.2403321
-2.796921	<s> เปิด	-0.393784
-2.495891	<s> เป็น	-0.7453951
-2.62083	<s> เพลง	-0.3939372
-1.83471	<s> เพิ่ม	-0.2290274
-2.973012	<s> เมนู	-0.6419315
-2.495891	<s> เมื่อ	-0.524763
-2.796921	<s> เมื่อคืน	0
-2.729974	<s> เมื่อวาน	-0.3521825
-2.973012	<s> เย็น	-0.6611814
-2.344623	<s> เริ่ม	0
-2.495891	<s> เรียก	-0.5824644
-2.495891	<s> เรียง	0
-3.575072	<s> เลิก
-2.043593	<s> เลื่อน	0
-2.097951	<s> เล่น	-0.4226271
-2.575072	<s> เสาร์	-0.5282738
-2.796921	<s> เสือ	0
-3.274042	<s> เอา
-2.973012	<s> แคนเซิล	0
-2.194861	<s> แจ้ง	0.1205739
-2.01877	<s> แถว	-0.6772417
-1.973012	<s> แนะนำ	-0.5440682
-3.097951	<s> แปด	0.2174839
-3.575072	<s> แรนดอม
-2.876102	<s> แลก	0
-2.796921	<s> แฮรี่พอตเตอร์	-0.7311547
-1.661258	<s> โกวาจี	0
-2.796921	<s> โฆษณา	0
-2.796921	<s> โจ๊ก	0
-2.876102	<s> โซน	-0.7043651
-2.796921	<s> โปรโมชัน	-0.7781512
-1.694259	<s> โรง	-0.8545055
-2.796921	<s> โรตี	0
-2.796921	<s> โลแกน	-0.60206
-2.213345	<s> ใคร	-0.3058289
-2.973012	<s> ใน	-0.6844922
-2.296319	<s> ใส่	-0.2690607
-2.495891	<s> ไข่	-0.324511
-2.796921	<s> ได้	-0.8336182
-2.495891	<s> ไป	-0.819418
-2.973012	<s> ไฟ	-0.5898255
-2.274042	<s> ไม่	-0.4444521
-2.3198	<s> ไอติม	-0.39794
-2.796921	<s> ไอรอนแมน	0
-0.09691001	กรอบ ที	0.5314789
-0.09691001	กระเทียม ต้อง	-0.6183141
-0.03476211	กระแส ตอบ	-0.6368221
-0.07918125	กรุงศรี อยู่	-0.5139239
-0.07918125	กรุงเทพ อยู่	-0.5139239
-0.4771213	กลับ บีทีเอส	0
-0.7781513	กลับ บ้าน	-0.4881167
-0.4771213	กลับ เอมอาที	0
-0.06694679	กลาง ว่าง	-0.7231036
-0.09691001	กลางวัน หน่อย	-0.05490088
-0.3679768	กล้วย ปิ้ง	-0.7311547
-0.3679768	กล้วย ราคา	-0.5591317
-0.2218488	กว่า กัน	-1.07884
-0.4436975	กว่า จะ	-0.7715206
-0.07918125	กสิกร อยู่	-0.5139239
-0.79588	กะเพรา ที	0.5314789
-0.79588	กะเพรา ยังไง	0.6627578
-0.79588	กะเพรา หมูสับ	0.2552725
-0.79588	กะเพรา ใช้	-0.5298276
-0.79588	กะเพรา ไก่	-0.6532125
-0.06694679	กัญชา </s>
-0.2123925	กัน </s>
-1.247155	กัน ก็ได้	-0.5611013
-1.247155	กัน สำหรับ	-0.69897
-1.423246	กัน เถอะ	0
-0.7700334	กัน เอง	0
-2.025306	กัน แค่
-0.9461246	กับ ซอบิงโก	0
-1.122216	กับ พุธ	-0.6585414
-0.6450946	กับ ร้าน	-0.8298581
-0.9461246	กับ ลา	-0.5720967
-0.9461246	กับ ส้ม	0.2688453
-0.9461246	กับ หมอ	-0.4707811
-0.9461246	กับ เพลง	-0.8205087
-0.09691001	การ แจ้ง	0.8195439
-0.3357921	กาแฟ กี่	-0.8298134
-0.4149733	กาแฟ อะไร	-0.551917
-0.06694679	กำกับ เรื่อง	-0.8154755
-0.1249387	กิจกรรม พรุ่งนี้	-0.595463
-0.8184459	กิน </s>
-1.353559	กิน ข้าว	-0.587711
-1.119476	กิน ชาบู	-0.6802878
-1.596597	กิน ดี	-0.2325068
-1.596597	กิน บ้าง	1.237418
-1.420506	กิน ผัด	-0.8055895
-1.596597	กิน ยา	-0.5026754
-1.119476	กิน สเต็ก	-0.9859135
-0.6423546	กิน อะไร	-1.236745
-0.9433846	กิน อาหาร	-0.937852
-1.420506	กิน ฮาจิบัง	-0.60206
-1.420506	กิน เคเอฟซี	0
-1.420506	กิน ไก่	-0.7745169
-0.5740313	กินข้าว ตอนเที่ยง	0
-0.5740313	กินข้าว วัน	-0.6686037
-0.5740313	กินข้าว วันนี้	-0.6619865
-0.07918125	กีฬา ได้	-0.6594615
-1.762178	กี่ คน	-0.7871061
-1.938269	กี่ งาน	-0.6553894
-2.063208	กี่ ชั่วโมง	-0.5948014
-1.841359	กี่ ชั้น	-0.7546702
-1.461148	กี่ ที่	-1.107013
-1.637239	กี่ นัด	-0.9367731
-0.8327593	กี่ นาที	-0.8650979
-1.762178	กี่ บาท	-0.763428
-1.762178	กี่ ปี	-0.60206
-1.461148	กี่ ร้าน	-1.103843
-1.586087	กี่ วัน	-0.7171948
-1.762178	กี่ สาขา	-0.60206
-1.762178	กี่ เปอร์เซ็นต์	0
-1.461148	กี่ แคลอรี่	-0.8679609
-0.2708165	กี่ โมง	-1.301605
-0.1205739	กี่โมง </s>
-0.7403627	กี่โมง ดี	-0.3786348
-0.1249387	กุมภา มี	-0.5737355
-0.30103	กู๊ด ไนท์
-0.05115252	ก็ ได้	-0.3231175
-0.3187588	ก็ได้ </s>
-0.6197888	ก็ได้ นะ	-0.0200479
-0.79588	ก็ได้ หน่อย	-0.05490088
-1	ก่อน </s>
-0.5228788	ก่อน ซัก	-0.60206
-1	ก่อน นอน	-0.4697601
-0.5228788	ก่อน สอง	-0.7695209
-0.30103	ก่อนหน้า </s>
-0.30103	ก่อย </s>
-0.9120448	ก๋วยเตี๋ยว กัญชา	0
-0.9120448	ก๋วยเตี๋ยว ที่	-0.823966
-0.9120448	ก๋วยเตี๋ยว รอบ	-0.7236758
-0.9120448	ก๋วยเตี๋ยว รุจิศรี	0
-0.9120448	ก๋วยเตี๋ยว อด	0
-0.9120448	ก๋วยเตี๋ยว เรือ	0
-0.9120448	ก๋วยเตี๋ยว ใน	-0.6618282
-0.4149733	ขนม ปัง	0
-0.3357921	ขนม หวาน	-0.7138191
-0.06694679	ขนาด นั้น	0
-0.06694679	ขวด ละ	-0.640978
-0.06694679	ขวัญ เรื่อง	-0.6737532
-1.581684	ขอ ข้อมูล	0
-1.882714	ขอ งีบ	0
-0.9796242	ขอ นอน	-0.4001242
-1.660865	ขอ ประวัติ	0
-1.882714	ขอ พัก	0
-1.581684	ขอ พิกัด	0
-1.104563	ขอ รอบ	-1.210038
-0.8827142	ขอ ราย	0
-1.581684	ขอ รายชื่อ	0
-1.058805	ขอ สูตร	0
-0.8546855	ขอ อีก	-0.4539218
-2.359835	ขอ เนื้อ
-1.318443	ขอ เบอร์	0
-1.660865	ขอ เพลง
-1.280654	ขอ เรื่อง	-1.094421
-1.280654	ขอ เส้น	0
-1.660865	ขอ แผนที่	0
-1.280654	ขอ โปรโมชัน	-0.69897
-2.113943	ของ ซูเปอ
-0.9378521	ของ ที่	-1.160775
-1.511883	ของ พรุ่งนี้	-0.6901516
-1.511883	ของ มะรืน	0.6812412
-2.113943	ของ มารูน
-0.9098234	ของ วัน	-0.7061301
-1.511883	ของ วันนี้	-0.6869887
-1.636822	ของ ศิลปิน
-1.335792	ของ สตาร์วอร์	-0.6947122
-1.636822	ของ สัปดาห์	-0.549882
-1.414973	ของ หวาน	-0.6716959
-1.414973	ของ หาย	0
-1.511883	ของ เก้า	-0.4600879
-2.113943	ของ เทเลอร์
-1.511883	ของ เมื่อวาน	-0.552842
-1.335792	ของ เรื่อง	-0.8255759
-1.335792	ของ เอส	0.6462637
-1.335792	ของ แฮรี่พอตเตอร์	-0.3332146
-1.335792	ของ โรงหนัง	0
-1.113943	ของ ได้	-0.6312673
-0.07918125	ของขวัญ ได้	-0.6594615
-0.30103	ขอบคุณ </s>
-0.3853509	ขั้น ตอน	-0.640192
-0.7533277	ขั้น ต่อ	-0.4784005
-0.6283889	ขั้น ถัด	0.20412
-1.021189	ขาย ข้าวโพด	0
-1.021189	ขาย ด้วย	-0.8001308
-1.021189	ขาย ที่	-0.823966
-1.021189	ขาย ทุก	-0.3936822
-1.021189	ขาย น้ำ	-0.7918525
-1.021189	ขาย ผลไม้	-0.60206
-1.021189	ขาย ยัง	0.4336556
-1.021189	ขาย อะไร	-0.6188637
-1.021189	ขาย ไม้	0
-0.06694679	ขี้เกียจ สระ	0.4336556
-0.06694679	ข้อมูล หนัง	-0.8369548
-0.544068	ข้าง ข้าง	-0.69897
-0.544068	ข้าง มั้ย	1.248324
-0.544068	ข้าง แอม	0
-0.7781513	ข้าม </s>
-0.7781513	ข้าม เพลง
-0.7781513	ข้าม ไป
-1.221849	ข้าว </s>
-1.09691	ข้าว กี่	-0.6888403
-0.79588	ข้าว ผัด	-0.9007233
-0.4436975	ข้าว มัน	-0.936331
-0.6197888	ข้าว หมู	-0.9947569
-0.06694679	ข้าวมัน ไก่	-0.7745169
-0.06694679	ข้าวโพด คลุก	0
-0.7659168	คณะ บัญชี	0.1549019
-0.2218488	คณะ วิศวะ	-0.4964264
-1.066947	คณะ อักษร	-0.447158
-1.066947	คณะ แพทย์	0
-0.90309	คน ข้าง	-0.69897
-0.90309	คน ที่	-0.8416467
-0.90309	คน นั่ง	-0.8205087
-0.9822713	คน พิการ	0
-0.90309	คน มั้ย	1.248324
-0.90309	คน ร้อง	-0.146128
-0.90309	คน แล้ว	-0.5818566
-0.30103	คนนี้ ชื่อ
-0.6368221	ครั้ง ต่อ	-0.4784005
-0.5118834	ครั้ง ถ้า	0
-0.6368221	ครั้ง หน้า	-0.5740313
-0.7781513	คราว </s>
-0.30103	คราว ที่	-0.5986087
-0.06694679	ครีมเมอรี่ มี	-0.8426718
-0.7871061	ครึ่ง </s>
-1.389166	ครึ่ง ชั่ว	-0.3679768
-0.4114425	ครึ่ง ชั่วโมง	-0.7721108
-1.690196	ครึ่ง ต้อง	-0.5908759
-0.6110148	ครึ่ง นะ	0.8250508
-1.389166	ครึ่ง หน่อย	-0.7412019
-1.565257	ครึ่ง เป็น	-0.6682107
-1.690196	ครึ่ง เรียก	-0.5177391
-0.06694679	คลุก เนย	0
-0.06694679	คล้าย กับ	-0.79292
-0.09691001	ควร นอน	-0.6608496
-0.03476211	ความ ยาว	-0.3301882
-0.09691001	คะน้า หมู	-0.6627579
-0.5228788	คะแนน รีวิว	-0.690196
-0.2218488	คะแนน ไอ	-0.5824644
-0.0211893	คำนวณ แคลอรี่	0.1702616
-0.07918125	คิดส์ซาเนีย อยู่	-0.5139239
-0.06694679	คิล บิล	0
-0.06694679	คิว ยาว	-0.7659168
-0.6368221	คืน </s>
-0.5118834	คืน ทุก	-0.2475542
-0.6368221	คืน มี	-0.5737355
-0.9420081	คือ งาน	-0.5790939
-0.3399481	คือ อะไร	-1.161315
-0.4648868	คือ แถว	-0.7589118
-0.8893017	คุย งาน	-0.6649348
-0.7132105	คุย ดี	-0.8286039
-0.2360892	คุย แบบ	-0.7493795
-0.60206	คู่ กัน
-0.60206	คู่ ชีวิต
-0.03476211	ค่อย ปลุก	-1.084488
-0.5797836	ค่า จอด	0.5642715
-0.1995724	ค่า สมัคร	-0.6802878
-0.09691001	ค่ำ หน่อย	-0.05490088
-0.5228788	งบ ประมาณ	0
-0.8239087	งบ สาม	-0.8226295
-0.8239087	งบ หนึ่ง	-0.7403626
-0.5228788	งบ ห้า	-1.084818
-1.0201	งาน </s>
-1.122762	งาน ตอน	-0.569117
-1.25746	งาน ต่อไป	-0.4149733
-1.696793	งาน บน	0.69897
-1.821732	งาน บ่าย	-0.4399795
-1.599883	งาน บ้าง	1.158237
-1.520702	งาน ประชุม	-0.7403626
-1.821732	งาน พรุ่งนี้	-0.5680248
-1.520702	งาน มั้ย	1.248324
-1.122762	งาน วัน	-0.7151348
-1.344611	งาน วันนี้	-0.6261237
-1.696793	งาน วันศุกร์	-0.5228788
-1.821732	งาน หรือ	-0.5228788
-1.696793	งาน หลัง	-0.6462637
-0.6176118	งาน อะไร	-0.6242747
-1.821732	งาน เจ็ด	-0.10721
-1.821732	งาน เตือน	-0.4961019
-1.821732	งาน เที่ยง	-0.5496719
-1.520702	งาน เยอะ	-0.69897
-1.696793	งาน แรก	-0.6642079
-1.696793	งาน ใน	-0.6844922
-0.1249387	งีบ สัก	-0.4259688
-0.06694679	ง่วง จัง	0
-1.30103	จบ กัน
-0.30103	จบ กี่	-0.7078891
-0.5228788	จบ ก่อน	-0.690196
-0.06694679	จอ ที่	-0.8209479
-0.2632414	จอง ตั๋ว	-0.5532115
-0.7403627	จอง ที่	-0.7940887
-0.7403627	จอง ได้	-0.8336182
-0.02020339	จอด รถ	-0.5869962
-0.8653014	จะ จบ	-0.544068
-0.8653014	จะ ซื้อ	-0.7463439
-1.166331	จะ ถึง	-0.5838352
-0.9444827	จะ ออก	-0.5772364
-0.8653014	จะ เที่ยง	-0.7579479
-0.5642715	จะ แปด	-0.2943994
-0.06694679	จัง </s>
-0.3617278	จัด งาน	-0.9215165
-0.5835766	จัด ที่	-0.7002286
-0.7596679	จัด หน่อย	-0.05490088
-0.7883704	จันทร์ </s>
-1.031408	จันทร์ กับ	-0.6648902
-1.031408	จันทร์ ถึง	-0.6551911
-1.031408	จันทร์ นี้	-0.6218041
-0.8553172	จันทร์ พุธ	-0.7829501
-0.7883704	จันทร์ มี	-0.9002581
-1.031408	จันทร์ แปด	0.1205739
-0.05115252	จับ เวลา	-0.8712683
-1.09108	จาก บ่าย	-0.3849319
-0.6651117	จาก บ้าน	-0.5392692
-0.7900504	จาก ฟ้า	0
-1.09108	จาก วัน	-0.5765059
-1.267172	จาก อัลบั้ม	-0.2552725
-1.568202	จาก เครื่อง
-1.267172	จาก เพลย์ลิส	0
-0.9661418	จาก เพลลิสต์	0.146128
-0.09691001	จากนี้ มี	-0.6706455
-0.08715018	จาม สแควร์	-0.538391
-0.8653014	จาม เก้า	-0.7311547
-0.3802112	จีน อะไร	-0.551917
-0.3802112	จีน ไหม	0.1688828
-0.5563025	จุด ถ่ายรูป	0
-0.5563025	จุด บริการ	-0.5440681
-0.5563025	จุด ไหน	-0.6912702
-0.06694679	จุล มี	-0.6885222
-0.5882717	จุฬา </s>
-0.1903317	จุฬา มี	-1.628754
-1.190332	จุฬา เปิด	-0.8061799
-0.30103	จูเนีย </s>
-0.5228788	จ่าย ด้วย	-0.8001308
-0.2218488	จ่าย สาม	-0.7989348
-0.1064553	ฉัน ตื่น	-0.6605737
-0.8846066	ฉัน ไป	-0.595781
-1.255273	ฉาย กี่	-0.5115944
-1.255273	ฉาย ตอน	-0.8225322
-1.255273	ฉาย ทั้งหมด	-0.60206
-1.255273	ฉาย ที่	-0.8381677
-0.7781513	ฉาย บ้าง	0.6576344
-1.255273	ฉาย ปี	-0.60206
-1.255273	ฉาย สิบ	-0.8342401
-1.255273	ฉาย ห้า	-0.8307793
-1.255273	ฉาย อยู่	-0.8269998
-0.7781513	ฉาย เรื่อง	-1.107409
-1.255273	ฉาย เวลา	-0.8055895
-1.255273	ฉาย แบบ	-0.8154755
-0.30103	ชอบ เพลง
-0.30103	ชะตา ชีวิต
-0.30103	ชัท ดาว
-0.30103	ชัฟเฟิล </s>
-0.9542425	ชั่ว คราว
-0.1760913	ชั่ว โมง	-0.8402091
-0.7663169	ชั่วโมง </s>
-1.479527	ชั่วโมง กี่	-0.5115944
-1.41258	ชั่วโมง ครึ่ง	-0.5650765
-1.479527	ชั่วโมง ค่อย	0.2688453
-1.780557	ชั่วโมง จะ	-0.5713912
-1.354589	ชั่วโมง ตอน	-0.605255
-1.002406	ชั่วโมง นะ	-0.4537035
-1.655619	ชั่วโมง นี้	-0.6944578
-0.5501084	ชั่วโมง นึง	0.06366903
-1.479527	ชั่วโมง บ้าง	1.09129
-1.780557	ชั่วโมง ประชุม	-0.5453324
-1.479527	ชั่วโมง ปลุก	-0.815643
-1.178497	ชั่วโมง อะ	-0.2186787
-1.479527	ชั่วโมง ได้	-0.809706
-1.278754	ชั้น </s>
-0.9777236	ชั้น สอง	-0.7337321
-0.9777236	ชั้น สาม	-0.7400308
-0.9777236	ชั้น สี่	-0.7323938
-0.9777236	ชั้น หนึ่ง	-0.6927211
-0.9777236	ชั้น ห้า	-0.7540176
-0.4592097	ชั้น ไหน	-1.016929
-0.1995724	ชาบู งบ	-0.5854607
-0.5797836	ชาบู บ้าง	1.158237
-0.3357921	ชาร์จ บ้าง	1.09129
-0.4149733	ชาร์จ โทรศัพท์	0
-0.1760913	ชีวิต </s>
-0.8939466	ชื่อ ภาค	-0.7763822
-0.5929166	ชื่อ สิบ	-0.8231037
-0.4168254	ชื่อ หนัง	-1.245222
-0.8269998	ชื่อ อะไร	-0.833956
-0.30103	ชูกา </s>
-0.02482358	ช่วง นี้	-1.072395
-0.7781513	ช่วย ด้วย	-0.3450039
-0.1249387	ช่วย ตั้ง	-0.9051729
-0.03476211	ช้า สุด	-0.773216
-0.06694679	ซอบิงโก ร้าน	-0.6550574
-0.06694679	ซอลบิง กับ	-0.79292
-0.3679768	ซัก ชั่วโมง	-0.7013628
-0.3679768	ซัก สิบ	-0.7626878
-0.06694679	ซาวด์แทรก </s>
-0.06694679	ซีท มั้ย	1.248324
-0.39794	ซีรีย์ ทุก	-0.2475542
-0.39794	ซีรีย์ วันไหน	0
-0.09691001	ซีอิ๊ว ให้	-0.5920758
-1.168792	ซื้อ ของ	-0.6853972
-1.071882	ซื้อ ของขวัญ	0
-0.6916708	ซื้อ ตั๋ว	-0.7170682
-1.071882	ซื้อ ยา	-0.5149099
-0.9927008	ซื้อ หนึ่ง	-0.79588
-1.071882	ซื้อ อุปกรณ์	0
-0.5947608	ซื้อ เครื่อง	-0.1760914
-0.07918125	ซุเปอร์มาร์เก็ต อยู่	-0.5139239
-0.30103	ซูเปอ จูเนีย
-0.60206	ซ้ำ </s>
-0.30103	ซ้ำ ทุก	-0.6772507
-0.3802112	ญี่ปุ่น อะไร	-0.551917
-0.3802112	ญี่ปุ่น ไหม	0.1688828
-0.07918125	ดนตรี ได้	-0.6594615
-0.06694679	ดรีม ทีม	0
-0.30103	ดัง อีก
-0.30103	ดังๆ หน่อย
-0.03476211	ดับ เพลิง	0
-0.819544	ดาว </s>
-0.916454	ดาว ต้อง	-0.6183141
-0.7403627	ดาว ปิด	-0.5160393
-0.916454	ดาว ยังไง	0.6627578
-0.916454	ดาว หน่อย	-0.05490088
-0.916454	ดาว ใช้	-0.5298276
-0.07918125	ดิน ที่	-0.7647694
-0.18152	ดี </s>
-1.428675	ดี ดี	-0.8286039
-1.127645	ดี บี	-0.5898255
-1.428675	ดี มั้ย	1.248324
-1.428675	ดี หน่อย	-0.2010289
-1.127645	ดี อยาก	-0.8023461
-1.428675	ดี เอ็กซ์	0
-0.07918125	ดีแทค ไหม	0.1688828
-0.06694679	ดึก ที่	-0.8209479
-0.06694679	ดื่ม ขวด	0
-0.845098	ดู ซีรีย์	-0.4771213
-0.6690068	ดู บ้าง	1.09129
-0.6690068	ดู หนัง	-0.8369548
-0.6690068	ดู อะไรวอล	-0.763428
-1.447158	ดู เนื้อ
-0.2538509	ด้วย </s>
-1.007179	ด้วย บัตร	-0.4694344
-1.308209	ด้วย พรุ่งนี้	-0.5680248
-1.308209	ด้วย มะรืน	0.7781512
-1.308209	ด้วย มี	-0.5935082
-1.007179	ด้วย ไหม	0.1019361
-0.7132105	ตรง กลาง	0
-0.1296339	ตรง ไหน	-0.6008469
-0.07918125	ตรา จอด	0.5642715
-0.03476211	ตลาด นัด	-0.7939455
-1.897627	ตอน กี่	-0.2685564
-1.52965	ตอน ตี	-0.4771213
-1.772688	ตอน ต่อ	-0.5753105
-1.897627	ตอน ถัด	0.30103
-1.119476	ตอน นี้	-0.6266029
-1.013021	ตอน บ่าย	0.05293614
-1.471658	ตอน สอง	-0.8786654
-1.22862	ตอน สาม	-0.7913308
-0.9275903	ตอน สิบ	-1.040905
-1.772688	ตอน สิบเอ็ด	-0.5392692
-1.52965	ตอน สี่	-0.4525531
-0.8432694	ตอน หก	0.4101745
-1.471658	ตอน ห้า	-0.6439859
-1.772688	ตอน เก้า	-0.4600879
-1.22862	ตอน เจ็ด	-0.6812413
-1.170628	ตอน เที่ยง	-0.4134521
-1.295567	ตอน แปด	-0.2943994
-1.295567	ตอน ไหน	-0.7275662
-0.06694679	ตอนนี้ </s>
-0.09691001	ตอนเที่ยง </s>
-0.1760913	ตอบ รับ	-0.6802878
-0.6532125	ตอบ อีเมล	0
-0.07918125	ตัด แว่น	0
-0.2388821	ตั้ง ปลุก	-1.04204
-0.4149733	ตั้ง เวลา	-1.173566
-0.39794	ตั้งแต่ วัน	-0.6475354
-0.39794	ตั้งแต่ เที่ยง	-0.6787666
-0.8939466	ตั๋ว ที่	-0.8381677
-0.8939466	ตั๋ว พร	0
-0.8939466	ตั๋ว ราคา	-0.5591317
-0.6307052	ตั๋ว หนัง	-0.7978655
-0.8939466	ตั๋ว แล้ว	-0.8248946
-0.8939466	ตั๋ว แฮรี่พอตเตอร์	-0.3332146
-0.01772877	ตาม สั่ง	0
-0.9208187	ตาราง ทั้งหมด	-0.4101745
-0.9208187	ตาราง สัปดาห์	-0.549882
-0.19382	ตาราง เรียน	-0.7082602
-0.03476211	ตำ เจ๊	-0.5177391
-0.2632414	ติด กัน	-0.8197922
-0.5642715	ติด ธุระ	-0.359022
-0.3802112	ติดต่อ ที่	-0.7348062
-0.3802112	ติดต่อ ได้	-0.6594615
-0.7201593	ตี สอง	-0.6867356
-0.845098	ตี สาม	-0.5909711
-0.4771213	ตี สี่	-0.6216955
-0.845098	ตี ห้า	-0.5949597
-0.09691001	ตีห้า วันเสาร์	0
-0.06694679	ตึก จุล	0
-0.8129134	ตื่น กี่	-1.064436
-1.414973	ตื่น กี่โมง	-0.7579479
-1.414973	ตื่น ช้า	0.2688453
-1.414973	ตื่น ตอน	-0.8225322
-1.414973	ตื่น มา	-0.79588
-0.9378521	ตื่น สิบ	-1.167305
-0.9378521	ตื่น หก	0.6754888
-1.414973	ตื่น เช้า	-0.8001308
-0.9378521	ตื่น เที่ยง	-1.050274
-1.414973	ตื่น เลย	0
-0.8129134	ตื่น แล้ว	-0.4057655
-1.414973	ตื่น ได้	-0.8336182
-1.274927	ต่อ นะ	-0.0200479
-1.274927	ต่อ อะ	-0.3834889
-0.3718372	ต่อ อีก	-0.6456474
-1.274927	ต่อ เยอะ	-0.69897
-1.274927	ต่อ ได้มั้ย	0
-1.274927	ต่อ ได้ไหม	0
-0.6059204	ต่อ ไป	-0.7195057
-1.39794	ต่อไป </s>
-1.39794	ต่อไป ยาว
-0.9208187	ต่อไป วัน	-0.5668277
-1.39794	ต่อไป อยู่
-0.3187588	ต่อไป อีก	-0.7461084
-1.39794	ต่อไป เพลง
-0.06694679	ต่ำ สุด	-0.7176987
-0.39794	ต้น เดือน	-0.3853509
-0.39794	ต้น ใหม่	-0.5779263
-0.9542425	ต้ม </s>
-0.9542425	ต้ม ต้อง	-0.6183141
-0.3521825	ต้ม มาม่า	-0.6636781
-0.6532125	ต้ม หน่อย	-0.3101734
-0.8166095	ต้อง ตื่น	-0.6605737
-0.5404031	ต้อง ทำ	-1.094122
-1.594761	ต้อง ปลุก	-0.5875822
-1.293731	ต้อง มี	-0.832829
-1.293731	ต้อง สะสาง	0
-1.293731	ต้อง สุภาพ	-0.690196
-1.594761	ต้อง ออก	-0.4011452
-1.293731	ต้อง เป็น	-0.7725474
-1.293731	ต้อง โดน	0
-0.770852	ต้อง ใช้	-1.153077
-0.04575749	ถอย หลัง	-0.4729652
-0.05799195	ถัด ไป	-0.8594055
-0.09691001	ถาม ซ้ำ	-0.39794
-1.164353	ถึง กี่	-0.4446477
-0.7841416	ถึง กี่โมง	-0.4985194
-1.261263	ถึง ตี	-0.5228788
-1.261263	ถึง ตีห้า	0
-1.386202	ถึง บ่าย	-0.5491239
-1.018225	ถึง วัน	-0.6030459
-0.9602329	ถึง สิบ	-0.6396996
-1.261263	ถึง สิ้น	0
-1.261263	ถึง สี่	-0.607455
-1.386202	ถึง หก	1.352182
-1.261263	ถึง ห้า	-0.6545148
-1.386202	ถึง เวลา	-0.5827549
-0.3679768	ถูก ที่	-0.8209479
-0.3679768	ถูก สุด	-0.7985219
-0.07918125	ถ่ายรูป ที่	-0.6332819
-0.09691001	ถ้า มี	-0.673648
-0.06694679	ทน รอ	0
-0.06694679	ทรี ดี	-0.8286039
-0.06694679	ทอง มา	-0.79588
-0.06694679	ทองดี ฟันขาว	0
-0.7403627	ทอด กระเทียม	0
-0.7403627	ทอด ต้อง	-0.6183141
-0.5642715	ทอด ที่	-0.7002286
-0.7403627	ทอด หน่อย	-0.05490088
-0.7781513	ทั้ง วัน	-0.5824471
-0.30103	ทั้ง หมด	-0.4393327
-0.7781513	ทั้ง เดือน	-0.5631419
-0.09691001	ทั้งวัน </s>
-0.3679768	ทั้งหมด </s>
-0.447158	ทั้งหมด ของ	-0.8607985
-0.845098	ทั้งหมด ที่	-0.8311249
-1.292256	ทาง หนี	0
-1.213075	ทาง เข้า	-0.7871061
-0.8151348	ทาง เชื่อม	0
-0.9120448	ทาง ไป	-0.819418
-0.2508634	ทาง ไหน	-1.561055
-1.69897	ทำ กะเพรา	-0.6232493
-1.522879	ทำ คน	-0.7871061
-1.60206	ทำ บัตร	-0.4024877
-1.154902	ทำ บ้าง	0.7602967
-0.9208187	ทำ ผัด	-0.5777915
-1.221849	ทำ รายได้	0
-1.69897	ทำ สุกี้	0
-1.69897	ทำ หมู	-0.6627579
-1.69897	ทำ หอย	0
-0.6197888	ทำ อะไร	-0.4862645
-1.522879	ทำ เงิน	-0.7871061
-1.69897	ทำ แกง	0
-1.39794	ทำ แบบ	-0.9142792
-1.522879	ทำ ให้	-0.7949314
-0.7447275	ทำ ไข่	-0.6911796
-0.462398	ทำงาน ตอน	-0.7276853
-0.763428	ทำงาน ที่	-0.6332819
-0.860338	ทำงาน แปด	-0.6718178
-0.6842467	ทำงาน ไร	-0.763428
-0.02632894	ที </s>
-0.06694679	ทีม เป็น	-0.7981014
-2.101518	ที่ </s>
-1.323367	ที่ คณะ	-0.6377756
-2.101518	ที่ จอง	-0.7579479
-2.101518	ที่ จอด	0.4973247
-1.800488	ที่ จาม	0.4973246
-1.499458	ที่ ฉาย	-0.7359537
-2.101518	ที่ ทำ	-0.8318698
-2.101518	ที่ ทำงาน	-0.6614536
-0.9553899	ที่ นั่ง	-0.263603
-2.101518	ที่ นิติ	0
-1.022337	ที่ นี่	0
-2.101518	ที่ บัญชี	-0.447158
-1.800488	ที่ พารากอน	-0.767105
-1.800488	ที่ มาบุญครอง	-0.4771212
-2.034571	ที่ ยี่	0.544068
-1.800488	ที่ วิศวะ	-0.6488034
-2.402548	ที่ สาม	-0.5639396
-1.624397	ที่ สิบ	-0.5825028
-2.402548	ที่ สิบเอ็ด	-0.4881167
-1.266885	ที่ สุด	-0.6161817
-2.101518	ที่ หอ	-0.640978
-2.101518	ที่ ห่าง	0
-2.101518	ที่ อักษร	-0.447158
-2.402548	ที่ เจ็ด	-0.4828736
-2.101518	ที่ เซ็นทรัลเวิลด์	-0.60206
-2.101518	ที่ เท่า	-0.2328188
-2.402548	ที่ เท่าไหร่	1.146128
-2.180699	ที่ เปลี่ยน	-0.6716959
-1.879669	ที่ เป็น	-1.002591
-2.101518	ที่ เมเจอร์	-0.5247629
-2.101518	ที่ เร็ว	-0.6560417
-2.101518	ที่ เศรษฐศาสตร์	0
-2.277609	ที่ เหลือ	-0.552842
-2.101518	ที่ เอน	0
-2.101518	ที่ แล้ว	-0.5818565
-1.517941	ที่ ใกล้	-0.7099652
-1.800488	ที่ ใน	-0.9306735
-2.101518	ที่ ไม่	-0.8055895
-0.5472307	ที่ ไหน	-0.9644439
-0.06694679	ที่นั่ง </s>
-0.5314789	ที่นี่ ปิด	-0.4490926
-0.2304489	ที่นี่ เปิด	-0.501255
-0.07918125	ที่พัก ใกล้	-0.7185656
-0.30103	ที่แล้ว </s>
-1.311754	ทุก ครั้ง	-0.5392692
-1.311754	ทุก รายการ	-0.4771213
-0.189538	ทุก วัน	-0.6508876
-1.010724	ทุก อย่าง	-0.7323937
-1.010724	ทุก อาทิตย์	-0.5166298
-0.1249387	ทุกวัน </s>
-0.30103	ทุ่ง </s>
-0.6931404	ทุ่ม </s>
-1.267172	ทุ่ม ถึง	-0.6744962
-1.09108	ทุ่ม ที่	-0.8381677
-1.39211	ทุ่ม นึง	-0.4357286
-0.7900504	ทุ่ม บ้าง	0.8224447
-1.39211	ทุ่ม มี	-0.576738
-1.267172	ทุ่ม วัน	-0.6145685
-0.9661418	ทุ่ม วันนี้	-0.5961107
-1.267172	ทุ่ม สี่	-0.6532125
-1.170262	ทุ่ม ออก	-0.6892102
-0.06694679	ทูฟาสต์ ทูสลีบ	0
-0.06694679	ทูสลีบ ไป	-0.819418
-0.06694679	ทูเดย์ สเต็ก	-0.7170682
-0.7781513	ธนาคาร กรุงศรี	0
-0.7781513	ธนาคาร กรุงเทพ	0
-0.7781513	ธนาคาร กสิกร	0
-0.7781513	ธนาคาร ยู	-0.6853972
-0.7781513	ธนาคาร ไทย	-0.7269987
-0.3679768	ธุระ </s>
-0.3679768	ธุระ อะไร	-0.8404531
-0.01424044	นอก จุฬา	-1.041393
-1.774517	นอน </s>
-0.1834524	นอน ต่อ	-0.6371175
-0.8202745	นอน อีก	-0.5385001
-1.075547	นอน ได้	-0.7344867
-1.297396	นอน ไม่	-0.8055895
-0.06694679	นอนได้ ถึง	-0.767105
-0.07037997	นะ </s>
-0.8485312	นะ พรุ่งนี้	-1.433701
-0.30103	นักร้อง คนนี้
-0.06694679	นักเรียน ได้	-0.8336182
-1.404212	นัด </s>
-1.667453	นัด กับ	-0.79292
-1.600506	นัด กิน	-0.8834099
-1.542514	นัด กินข้าว	-0.3679768
-1.843544	นัด ควร	0
-1.843544	นัด ซื้อ	-0.6684807
-1.843544	นัด ดู	-0.6320232
-1.542514	นัด ตอน	-0.5794942
-1.843544	นัด ตั้งแต่	-0.4771213
-1.843544	นัด ต่อ	-0.5753105
-1.843544	นัด ต่อไป	-0.4149733
-1.366423	นัด ทั้งหมด	-0.9220578
-1.843544	นัด ทำงาน	-0.6345121
-1.542514	นัด ทุก	-0.9096604
-1.843544	นัด นำ	0
-1.241484	นัด ประชุม	-0.8263394
-1.667453	นัด มัน	-0.7579479
-1.968483	นัด มั้ย	1.491362
-1.047664	นัด วัน	-0.7387703
-1.843544	นัด วันนี้	-0.6869887
-1.843544	นัด สาม	-0.6841209
-1.968483	นัด สิบ	-0.4906116
-1.968483	นัด สี่	-0.5158738
-1.542514	นัด สุดท้าย	0
-1.542514	นัด ส่ง	0.2304489
-1.366423	นัด หมอ	-0.3786348
-1.241484	นัด อะไร	-1.004215
-1.968483	นัด เตือน	-0.4961019
-1.843544	นัด เพิ่ม	-0.6741464
-1.542514	นัด เพื่อน	-0.5228788
-1.968483	นัด เย็นนี้	0
-1.843544	นัด เลี้ยง	0
-1.065393	นัด แรก	-0.6853971
-0.2218488	นับ ถอย	0
-0.5740313	นับ เวลา	-0.6159958
-1.259275	นั่ง ตรง	-0.7516763
-1.259275	นั่ง ติด	-0.5026754
-1.259275	นั่ง ถูก	-0.60206
-1.338457	นั่ง ทำงาน	-0.6959645
-1.259275	นั่ง ที่	-0.8416467
-1.259275	นั่ง บี	-0.7359536
-1.259275	นั่ง พรีวิเลจ	0
-1.259275	นั่ง พรีเมี่ยม	0
-1.259275	นั่ง มั้ย	1.248324
-1.259275	นั่ง ริม	0
-1.259275	นั่ง สำหรับ	-0.69897
-1.259275	นั่ง เอ	-0.60206
-0.782154	นั่ง แบบ	-0.7493795
-1.259275	นั่ง แพง	0
-0.06694679	นั้น ก็	0.1091445
-0.30103	นาที </s>
-1.810681	นาที กลับ	-0.5228788
-1.50965	นาที กี่	-0.5115944
-1.50965	นาที ค่อย	0.2688453
-1.20862	นาที นะ	-0.2888932
-1.50965	นาที ปลุก	-0.5570928
-1.810681	นาที มี	-0.5935082
-1.50965	นาที ละ	-0.4860761
-1.50965	นาที อะ	-0.3834889
-1.810681	นาที เตือน	-0.4961019
-1.50965	นาที เที่ยง	-0.7579479
-1.685742	นาที เป็น	-0.6682107
-1.20862	นาที แปด	-0.2943994
-1.810681	นาที แล้ว	-0.5920758
-1.50965	นาที ได้	-0.809706
-0.8750613	นาน แค่ไหน	0
-0.09691001	นาน ไหม	0.310212
-0.09691001	นำ เสนอ	0
-0.06694679	นิติ มี	-0.6885222
-0.7047223	นี่ </s>
-0.8016323	นี่ กลับ	-0.3679768
-0.2787536	นี่ มี	-0.8701136
-1.181844	นี่ เครือ	0
-0.7883704	นี้ </s>
-1.684621	นี้ กิน	-0.8419453
-1.441583	นี้ กี่	-0.5359467
-1.80956	นี้ คิว	0
-1.383591	นี้ คือ	-0.9651345
-1.587711	นี้ จัด	-0.7936082
-2.587711	นี้ ชื่อ
-2.587711	นี้ ซ้ำ
-1.587711	นี้ ตอน	-0.6464409
-1.985651	นี้ ต้อง	-0.5513673
-0.4638593	นี้ มี	-0.5863956
-2.587711	นี้ ยาว
-1.80956	นี้ วัน	-0.5467989
-1.742613	นี้ ว่าง	-0.4944954
-2.11059	นี้ ส่ง	-0.3716111
-1.332438	นี้ หนัง	-0.6491598
-2.587711	นี้ หน่อย
-2.11059	นี้ ออก	-0.188425
-1.80956	นี้ อีก	-0.7827373
-2.587711	นี้ อีกรอบ
-2.11059	นี้ เป็น	-0.5791972
-1.2075	นี้ โรง	-1.290603
-2.286681	นี้ ใคร
-2.587711	นี้ ใหม่
-1.684621	นี้ ให้	-0.8473483
-1.80956	นี้ ไม่ว่าง	0
-1.985651	นี้ ไหม	0.2480641
-0.09691001	นี้่ิ งาน	-0.6901516
-0.4973246	นึง </s>
-0.5642715	นึง นะ	-0.4537035
-1.342423	นึง ปลุก	-0.572605
-1.041393	นึง ละ	-0.4860761
-1.041393	นึง อะ	-0.3834889
-1.041393	นึง ได้	-0.809706
-0.1863104	น่า กิน	-1.091377
-0.8553172	น่า ดู	-0.7403626
-0.8553172	น่า สน	0
-1.017033	น้ำ คน	-0.7303785
-0.3180633	น้ำ ชั้น	-0.45364
-0.9378521	น้ำ ดื่ม	0
-1.017033	น้ำ เสร็จ	0
-0.9378521	น้ำ แล้ว	-0.8037053
-0.09691001	น้ำตาล เท่า	-0.5905464
-0.1249387	น้ำปลา เท่า	-0.4936364
-0.01772877	บน ปฎิทิน	-0.4676797
-0.3802112	บริการ ดีแทค	0
-0.3802112	บริการ แท็กซี่	0
-0.06694679	บรูซ วิลลิส	0
-0.06694679	บลีช เทพ	0
-0.06694679	บอก งาน	-0.8249986
-0.5228788	บัญชี ขาย	-0.8016323
-0.2218488	บัญชี มี	-0.9573675
-0.5006024	บัตร สมาชิก	-0.7403626
-0.2373609	บัตร เครดิต	0
-0.06694679	บัว ลอย	0
-0.7659168	บาท </s>
-0.4648868	บาท กิน	-1.285643
-0.4648868	บาท ที่	-1.253071
-1.066947	บาท ใช่	0
-0.06694679	บิงซู มะม่วง	0
-0.06694679	บิล ฉาย	-0.8202744
-0.03476211	บิวตี้ แอนด์	0
-0.6532125	บี มาก	0
-0.6532125	บี สิบ	-0.8058447
-0.7323937	บี อยู่	-0.5139239
-0.6532125	บี เท่าไหร่	0.90309
-0.06694679	บีทีเอส สถานี	-0.3099848
-0.03476211	บีสต์ มี	-0.8353107
-0.3357921	บุฟเฟต์ ที่	-0.7002286
-0.4149733	บุฟเฟต์ บ้าง	1.158237
-1.308209	บ่าย </s>
-1.308209	บ่าย ถึง	-0.5838352
-0.5065762	บ่าย สอง	-0.6804865
-0.9402318	บ่าย สาม	-0.5644373
-0.4051186	บ่าย โมง	-0.3115506
-0.005057344	บ้าง </s>
-2.061327	บ้าง มั้ย	1.248324
-0.6368221	บ้าน </s>
-0.2108534	บ้าน แล้ว	-0.6910011
-0.30103	บ๊ายบาย </s>
-0.8893017	ปฎิทิน ตอน	-0.6546354
-0.1903317	ปฎิทิน บ้าง	0.6141688
-0.8893017	ปฎิทิน มี	-0.6783248
-0.07918125	ประชาสัมพันธ์ อยู่	-0.5139239
-0.9120448	ประชุม </s>
-1.514105	ประชุม กี่	-0.2685564
-1.213075	ประชุม ครั้ง	-0.3332146
-1.514105	ประชุม คราว	-0.30103
-1.389166	ประชุม งาน	-0.6649348
-1.213075	ประชุม จาก	-0.5252199
-0.6690068	ประชุม ตอน	-0.5665643
-1.514105	ประชุม ทุ่ม	-0.5840867
-1.514105	ประชุม บ่าย	-0.3849319
-1.514105	ประชุม พรุ่งนี้	-0.595463
-1.514105	ประชุม ล่า	0.39794
-1.213075	ประชุม วัน	-0.4543498
-1.389166	ประชุม วันนี้	-0.6619865
-1.514105	ประชุม สาม	-0.526513
-1.514105	ประชุม หนึ่ง	-0.5440681
-0.07918125	ประดับ ได้	-0.6594615
-0.07918125	ประทับ ตรา	0
-0.03476211	ประมาณ เท่า	-0.5016642
-0.07918125	ประวัติ ของ	-0.7249057
-0.06694679	ประเภท ไหน	-0.6579648
-0.06694679	ปลั๊ก ไฟ	-0.6690068
-1.4843	ปลุก </s>
-1.18327	ปลุก ด้วย	-0.7599772
-0.5903533	ปลุก ตอน	-0.782164
-1.78533	ปลุก ตี	-0.4259688
-1.007179	ปลุก ทุก	-0.8273378
-1.18327	ปลุก นะ	-0.2888932
-1.4843	ปลุก วันหยุด	0
-1.4843	ปลุก สิบ	-0.7336496
-1.78533	ปลุก สี่	-0.5563025
-1.359361	ปลุก หก	0.9999999
-1.78533	ปลุก อีก	-0.5978907
-1.78533	ปลุก เก้า	-0.3631779
-1.308209	ปลุก เที่ยง	-0.4860761
-1.007179	ปลุก เรา	-0.60206
-1.262451	ปลุก แปด	-0.2218487
-1.78533	ปลุก ไป	-0.595781
-0.05115252	ปะ </s>
-0.07918125	ปัง อะไร	-0.551917
-0.06694679	ปังเย็น มี	-0.8390068
-0.06694679	ปาร์ค ปิด	-0.5160393
-0.1249387	ปาร์ตี้ </s>
-0.2747011	ปิด กี่	-1.210564
-0.4259687	ปิด บ้าง	0.538448
-1.80618	ปิด เสียง
-1.80618	ปิด โปรแกรม
-0.3357921	ปิ้ง ที่	-0.8166872
-0.7160034	ปิ้ง ย่าง	0
-0.6368221	ปิ้ง ร้าน	-0.6550574
-0.3679768	ปี แล้ว	-0.5818566
-0.3679768	ปี ไหน	-0.6579648
-0.06694679	ป๊อปคอร์น มั้ย	1.248324
-0.5228788	ผม ซัก	-0.60206
-0.2218488	ผม แล้ว	-0.544068
-0.3679768	ผลไม้ ขาย	-0.8016323
-0.3679768	ผลไม้ ไหม	0.1019361
-0.09691001	ผักกาด ทำ	-0.5797836
-0.6347291	ผัด กะเพรา	-0.2552725
-1.236789	ผัด ซีอิ๊ว	0
-1.236789	ผัด มักโรนี	0
-0.5378191	ผัด มาม่า	-0.1196098
-1.236789	ผัด เปรี้ยว	0
-0.9357591	ผัด ไข่	-0.6585414
-1.060698	ผัด ไทย	-0.7829501
-0.09691001	ผัดซีอิ๊ว กี่	-0.6836854
-0.07918125	ผู้ใหญ่ เท่าไหร่	0.9700367
-0.07918125	ผ่าน บ้าง	1.158237
-0.07918125	ผ้า อ้อม	0
-0.30103	ฝน </s>
-0.04139268	ฝาก ของ	-1.006631
-0.06694679	พร จาก	-0.768258
-0.06694679	พรจากฟ้า รอบ	-0.8233787
-0.06694679	พระเกี้ยว ไป	-0.8324478
-0.09691001	พริก เท่า	-0.5905464
-0.09691001	พริกไทย เท่า	-0.5905464
-0.06694679	พรีวิเลจ คือ	-0.6627578
-0.06694679	พรีเมี่ยม ราคา	-0.5591317
-0.07463362	พรุ่ง นี้	-0.7019523
-0.9777236	พรุ่ง นี้่ิ	0
-0.5745772	พรุ่งนี้ </s>
-1.395763	พรุ่งนี้ กี่	-0.6207389
-1.696793	พรุ่งนี้ กี่โมง	-0.08354604
-1.043581	พรุ่งนี้ ตื่น	-0.9072458
-1.821732	พรุ่งนี้ ทั้ง	-0.30103
-1.696793	พรุ่งนี้ ทั้งวัน	0
-1.696793	พรุ่งนี้ ทั้งหมด	-0.455932
-1.696793	พรุ่งนี้ นี้	-0.6806329
-1.453755	พรุ่งนี้ บ่าย	-0.3993616
-0.8674893	พรุ่งนี้ ปลุก	-0.6480401
-1.122762	พรุ่งนี้ มี	-0.5874775
-1.821732	พรุ่งนี้ ว่าง	-0.5453324
-1.696793	พรุ่งนี้ เที่ยง	-0.6118199
-1.821732	พรุ่งนี้ เปลี่ยน	-0.5413622
-1.043581	พรุ่งนี้ เรา	-1.035716
-1.821732	พรุ่งนี้ ไม่	-0.4956047
-1.696793	พรุ่งนี้ ไหม	0.2480641
-0.2340832	พฤหัส นี้	-0.4564367
-0.60206	พฤหัส เย็น	-0.5440681
-0.30103	พอ แล้ว
-0.30103	พอส </s>
-0.39794	พะโล้ </s>
-0.39794	พะโล้ ใช้	-0.5298276
-0.1249387	พัก ห้า	-0.3879668
-0.06694679	พากย์ ไทย	-0.7829501
-0.07918125	พาณิชย์ อยู่	-0.5139239
-0.8219302	พารากอน </s>
-1.085172	พารากอน จ่าย	-0.690196
-1.085172	พารากอน ตอนนี้	0
-1.085172	พารากอน มั้ย	1.248324
-0.7841416	พารากอน มี	-0.8353107
-1.085172	พารากอน อยู่	-0.7533277
-1.164353	พารากอน อย่าง	-0.6532125
-1.085172	พารากอน แถว	-0.8182259
-1.085172	พารากอน ได้	-0.8336182
-0.3679768	พาราโบลา มี	-0.8426718
-0.3679768	พาราโบลา วัน	-0.7606965
-0.06694679	พิกัด ร้าน	-0.8349977
-0.07918125	พิการ ไหม	0.1688828
-0.4771213	พิเศษ ทุก	-0.2475542
-0.30103	พิเศษ บ้าง	1.09129
-0.8081145	พุธ </s>
-1.051152	พุธ ตอน	-0.6725265
-1.176091	พุธ นี้	-0.5986803
-1.176091	พุธ ปลุก	-0.582647
-1.176091	พุธ มี	-0.576738
-0.8750613	พุธ ศุกร์	-0.768258
-1.176091	พุธ หน้า	-0.5740313
-1.051152	พุธ ห้า	-0.6545148
-1.176091	พุธ ไป	-0.595781
-0.09691001	พูด ว่า	-0.3467875
-0.06694679	ฟรี มั้ย	1.248324
-0.06694679	ฟรุตตี้ ขาย	-0.8016323
-0.06694679	ฟัง เพลง	-0.8119929
-0.06694679	ฟันขาว เข้า	-0.7871061
-0.3802112	ฟิตเนส มี	-0.7736928
-0.3802112	ฟิตเนส ไหม	0.1688828
-0.06694679	ฟิฟตี้ เชดส์	0
-0.06694679	ฟ้า รอบ	-0.8233787
-0.8346326	ภาค ล่า	0.154902
-0.5336026	ภาค ล่าสุด	0
-0.8346326	ภาค ว่า	-0.4929155
-0.8346326	ภาค แรก	-0.7918525
-0.8346326	ภาค ใหม่	-0.768258
-0.06694679	มรณะ เดอะ	-0.7704644
-0.06694679	มหิต มี	-0.6885222
-0.06694679	มะม่วง อร่อย	-0.5688916
-0.01848341	มะรืน นี้	-0.4745888
-0.09691001	มักโรนี กัน	-0.286448
-0.09691001	มังสวิรัติ หน่อย	-0.05490088
-0.7403627	มัน ปิ้ง	-0.5762527
-0.7403627	มัน อยู่	-0.8081145
-0.2632414	มัน ไก่	-0.5854608
-0.003516574	มั้ย </s>
-0.6690068	มา กิน	-1.061414
-0.9700368	มา กี่	-0.8375229
-0.9700368	มา ขาย	-0.8016323
-0.845098	มา ต้ม	-0.69897
-0.6690068	มา สี่	-1.058426
-0.9700368	มา อ่าน	0
-0.06694679	มาก กว่า	-0.447158
-0.544068	มาบุญครอง บ้าง	1.09129
-0.544068	มาบุญครอง สอง	-0.8266146
-0.544068	มาบุญครอง อยู่	-0.7533277
-0.7096938	มาม่า </s>
-0.4086639	มาม่า กัน	-0.4971384
-1.010724	มาม่า ยังไง	0.6627578
-1.010724	มาม่า หน่อย	-0.05490088
-1.010724	มาม่า ใช้	-0.5298276
-0.30103	มาย อาย
-0.30103	มารูน ไฟว์
-0.06694679	มิติ บ้าง	-0.8413106
-0.06694679	มิยาบิ หมด	-0.6690068
-3.032216	มี </s>
-1.856124	มี กี่	-0.7536957
-1.953034	มี คน	-0.7201593
-1.953034	มี ความ	0
-1.199707	มี งาน	-0.7202631
-2.333246	มี จุด	-0.6368221
-2.254065	มี ชื่อ	-0.785784
-2.430156	มี ซีรีย์	-0.4771213
-2.254065	มี ตรง	-0.2568263
-2.254065	มี ตลาด	0.2688453
-1.990823	มี ตั๋ว	-0.6179367
-2.254065	มี ทำงาน	-0.7444279
-1.145725	มี ที่	-1.078034
-2.333246	มี ที่พัก	0
-2.077973	มี ธุระ	0.1047354
-1.246886	มี นัด	-0.6240946
-1.709996	มี ประชุม	-0.5760356
-2.254065	มี ปลั๊ก	0
-2.555094	มี ปาร์ตี้	0
-2.254065	มี ผลไม้	-0.60206
-2.430156	มี ผักกาด	0
-2.333246	มี ฟิตเนส	-0.5440681
-2.254065	มี รส	-0.6802878
-2.333246	มี รองเท้า	0
-2.254065	มี รอบ	-0.8233787
-1.953034	มี รีวิว	-0.7160033
-0.5189981	มี ร้าน	-0.7457743
-2.254065	มี ลา	-0.5720967
-2.333246	มี ลิฟท์	0
-1.828096	มี วิธี	0
-2.333246	มี ศูนย์	-0.5440681
-2.254065	มี สอบ	0
-1.953034	มี ส่วน	0.1648103
-1.261364	มี หนัง	-0.6771886
-1.953034	มี หมู	-0.9947569
-2.032216	มี ห้อง	0.4890205
-1.333246	มี อะไร	-0.8246589
-2.254065	มี อายุ	0
-2.254065	มี อเมซอน	-0.60206
-1.555094	มี เงิน	-0.4191295
-2.254065	มี เซเว่น	0
-2.187118	มี เรียน	-0.5621321
-2.430156	มี เวลา	-0.6730343
-2.333246	มี เอทีเอม	0
-1.953034	มี แบบ	-0.7836837
-1.634276	มี โซน	-0.7549214
-1.776943	มี โปรโมชัน	-0.60206
-1.990823	มี โปรโมชั่น	0
-2.254065	มี ไวไฟ	0
-2.254065	มี ไอติม	-0.7403626
-0.4259687	มีนา ตอน	-0.5756165
-0.4259687	มีนา มี	-0.5737355
-0.09691001	มื้อ นี้	-0.6898983
-0.06694679	มูฟวี่ เป็น	-0.7981014
-0.06694679	ม้้ย </s>
-0.06694679	ย ยักษ์	0
-1.31527	ยกเลิก </s>
-1.31527	ยกเลิก กิจกรรม	0
-0.7923917	ยกเลิก งาน	-0.75576
-0.8893017	ยกเลิก ตาราง	-0.510545
-1.190332	ยกเลิก ทุก	-0.6772507
-0.3452336	ยกเลิก นัด	-0.7123961
-0.06694679	ยักษ์ ปิด	-0.5160393
-0.0234811	ยัง ไง	0
-0.01930515	ยังไง </s>
-0.4393327	ยา ตอน	-0.6859495
-0.3424227	ยา ได้	-0.6594615
-0.2775489	ยาว กี่	-1.231992
-0.7781513	ยาว มั้ย	1.248324
-0.7781513	ยาว เท่า	-0.2328188
-1.556303	ยาว เท่าไหร่
-0.06694679	ยาโยอิ ไหม	0.1019361
-0.06694679	ยิน ว่า	-0.6690068
-0.01579427	ยี่ สิบ	-0.6136982
-0.1249387	ยี่สิบ นาที	-0.5884162
-0.09691001	ยืนยัน เพิ่ม	-0.3467875
-0.9378521	ยู </s>
-0.6368221	ยู อร่อย	-0.7907404
-0.7160034	ยู โอ	0
-0.6368221	ยู ไป	-0.819418
-1.414973	ยู ไอ
-0.03476211	ย่อ ของ	-0.8030367
-0.07918125	ย่าง บ้าง	1.158237
-0.06694679	ย้าย งาน	-0.5310936
-1.041393	รถ ชั้น	-0.5928193
-0.6611814	รถ ดับ	0
-0.9622114	รถ บ้าง	1.09129
-1.041393	รถ ราคา	-0.492185
-1.041393	รถ เมล์	0
-1.041393	รถ ได้	-0.6594615
-0.7403627	รถ ไฟฟ้า	0
-0.6766936	รส จัด	-0.6159958
-0.5006024	รส อะไร	-0.775964
-0.5006024	รส ใหม่	-0.768258
-0.09691001	รหัส หก	1.255272
-0.06694679	รอ นาน	-0.146128
-0.07918125	รองเท้า ให้	-0.7367586
-1.487845	รอบ </s>
-1.311754	รอบ กี่	-0.5115944
-1.010724	รอบ จุฬา	-0.9843094
-0.8346326	รอบ ฉาย	-1.199572
-1.311754	รอบ ดึก	0
-1.311754	รอบ ต่อ	-0.7214385
-0.6127838	รอบ นอก	0
-1.311754	รอบ สอง	-0.7695209
-1.311754	รอบ สาม	-0.769551
-1.010724	รอบ หก	0.8402991
-1.311754	รอบ ไหน	-0.8414485
-0.6690068	ระหว่าง ก๋วยเตี๋ยว	-0.7883704
-0.6690068	ระหว่าง ซอลบิง	0
-0.6690068	ระหว่าง สเต็ก	-0.7170682
-0.6690068	ระหว่าง ส้ม	0.2688453
-0.06694679	รัก โรแมนติก	0
-0.8016323	รับ ของ	-0.8245764
-0.5797836	รับ ฝาก	0
-0.8808136	รับ สมัคร	-0.6455257
-0.8016323	รับ เรื่อง	-0.6737532
-0.8016323	รับ เหรียญ	0
-1.151268	ราคา กี่	-0.8375229
-1.230449	ราคา ผู้ใหญ่	0
-1.230449	ราคา เด็ก	-0.5440681
-0.3166351	ราคา เท่า	-1.01097
-0.69897	ราคา เท่าไหร่	0.4929155
-1.230449	ราคา ไหน	-0.6912702
-0.3679768	รางวัล ออสการ์	0
-0.3679768	รางวัล อะไร	-0.6188637
-0.01424044	ราย ชื่อ	-0.7624711
-0.39794	รายการ ที่	-0.6966721
-0.39794	รายการ แจ้ง	0.8195439
-0.39794	รายงาน พรุ่งนี้	-0.6834182
-0.39794	รายงาน วันนี้	-0.6619865
-0.06694679	รายชื่อ สาขา	-0.60206
-0.3679768	รายได้ ต่ำ	0
-0.3679768	รายได้ สูง	0.2688453
-0.06694679	ริม ว่าง	-0.7231036
-0.30103	ริฮันนา </s>
-0.06694679	รีบ อีก	-0.7631418
-0.5228788	รีวิว เท่าไหร่	0.90309
-0.2218488	รีวิว เป็น	-1.01424
-0.06694679	รึยัง </s>
-0.06694679	รุจิศรี เมนู	-0.6449685
-1.176091	ร้อง </s>
-0.09691001	ร้อง ไห้	0
-0.01189922	ร้อย บาท	-0.7760781
-1.638489	ร้าน </s>
-1.676278	ร้าน กาแฟ	0
-1.462398	ร้าน ก๋วยเตี๋ยว	-0.6462637
-1.676278	ร้าน ขนม	0
-2.018701	ร้าน ของ	-0.7611179
-1.638489	ร้าน ขาย	-0.7533277
-1.939519	ร้าน ข้าวมัน	0
-1.939519	ร้าน ทูเดย์	0
-1.939519	ร้าน บุฟเฟต์	-0.5762527
-1.939519	ร้าน มิยาบิ	0
-1.939519	ร้าน ย	0
-1.939519	ร้าน ยาโยอิ	0
-1.939519	ร้าน สตาร์บัค	0
-1.462398	ร้าน สเต็ก	-0.6353982
-2.018701	ร้าน หนังสือ	-0.5672979
-1.939519	ร้าน ห้า	-0.8307793
-0.6923646	ร้าน อาหาร	-0.7836567
-1.939519	ร้าน ฮาจิบัง	-0.60206
-1.939519	ร้าน เจฟเฟอร์	-0.60206
-1.939519	ร้าน เด็ด	-0.8093824
-2.018701	ร้าน เปิด	-0.7459666
-2.018701	ร้าน เสริมสวย	0
-1.939519	ร้าน เอ็มเค	0
-1.939519	ร้าน โอโตยะ	0
-1.638489	ร้าน ใน	-0.8001308
-0.4504988	ร้าน ไหน	-1.119514
-2.018701	ร้าน ไอที	0
-1.939519	ร้าน ไอเดีย	0
-0.7269987	ลด ป๊อปคอร์น	0
-0.7269987	ลด ราคา	-0.8133062
-0.7269987	ลด สำหรับ	-0.69897
-0.7269987	ลด อะไร	-0.8404531
-1.50515	ลด อีก
-1.50515	ลด เสียง
-0.1760913	ลบ เพลง	-0.4128226
-0.09691001	ลวก </s>
-0.06694679	ลอย สวีท	0
-0.2498775	ละ กัน	-0.8662316
-0.4259687	ละ ห้า	-1.084818
-0.07918125	ละหมาด ไหม	0.1688828
-1.954242	ลา ก่อน
-1.954242	ลา ก่อย
-0.3309932	ลา ลา	-1.360467
-0.3309932	ลา แลนด์	0
-0.09691001	ลางาน สาม	-0.6841209
-0.07918125	ลาน โบว์ลิ่ง	-0.6368221
-0.07918125	ลิฟท์ ตรง	-0.1898796
-0.06694679	ลิโด้ มั้ย	1.248324
-0.0234811	ลืม ปลุก	-1.149841
-0.06694679	ลุก แล้ว	-0.8248946
-0.3679768	ลุง ที่	-0.8381677
-0.3679768	ลุง ฟรุตตี้	0
-0.30103	ลูก ทุ่ง
-0.06694679	ล็อบสเตอร์ เข้า	-0.7201593
-0.06694679	ล่วง หน้า	-0.7871061
-0.04575749	ล่า สุด	-0.7059071
-0.3679768	ล่าสุด </s>
-0.3679768	ล่าสุด เป็น	-0.7453951
-0.6532125	วอล มี	-1.109077
-0.9542425	วอล รอบ	-0.8233787
-0.9542425	วอล วัน	-0.8147317
-0.6532125	วอล วันนี้	-0.7346855
-0.9542425	วอล เข้า	-0.7201593
-0.9542425	วอล เป็น	-0.7453951
-0.07918125	วอล์ค ไป	-0.6594021
-0.0211893	วัตถุดิบ อะไร	-1.095985
-1.355012	วัน </s>
-1.029158	วัน จันทร์	0
-1.80731	วัน ตอน	-0.7778457
-2.10834	วัน ถึง	-0.5582811
-1.983401	วัน ทำงาน	-0.5153256
-0.9519923	วัน ที่	-0.8285089
-0.7529518	วัน นี้	-0.4972225
-1.983401	วัน พรุ่ง	0.1026623
-1.170487	วัน พรุ่งนี้	-0.6074819
-1.585461	วัน พฤหัส	0
-1.284431	วัน พุธ	-0.4436975
-1.983401	วัน มะรืน	0.6812412
-1.80731	วัน มี	-0.5646012
-1.170487	วัน ศุกร์	-0.3482522
-2.10834	วัน อะ	-0.5777007
-1.243038	วัน อังคาร	0
-1.983401	วัน อาทิตย์	-0.455932
-1.381341	วัน เสาร์	-0.07234192
-1.886491	วัน ไป	-0.6594021
-1.108339	วัน ไหน	-0.8749402
-1.544068	วัน ไหม	-0.1321471
-0.3521825	วันที่ ยี่	0.748188
-0.4771213	วันที่ แปด	-0.5818566
-0.7359536	วันนี้ </s>
-1.565257	วันนี้ ตั้งแต่	-0.4771213
-0.9631974	วันนี้ ต้อง	-1.082846
-1.565257	วันนี้ ทั้งหมด	-0.455932
-1.389166	วันนี้ ที่	-0.8416467
-1.389166	วันนี้ นอนได้	0
-1.565257	วันนี้ นี้	-0.6806329
-0.7201593	วันนี้ มี	-0.9611176
-1.565257	วันนี้ ว่าง	-0.5769756
-1.690196	วันนี้ สอง	-0.5264829
-1.389166	วันนี้ หน่อย	-0.2010289
-1.322219	วันนี้ เหลือ	-0.3521825
-1.088136	วันนี้ ไป	-0.6732898
-1.389166	วันนี้ ไม่	-0.8055895
-0.4771213	วันศุกร์ นี้	-0.6898983
-0.30103	วันศุกร์ มี	-0.5646012
-0.06694679	วันหยุด นี้	-0.8337284
-0.09691001	วันเสาร์ นี้	-0.6218041
-0.09691001	วันไหน บ้าง	1.237418
-0.05115252	วาน มี	-0.6485729
-0.09691001	วานซืน ทำ	-0.5797836
-0.3521825	วิธี ทำ	-0.9365138
-0.3521825	วิธี อื่น	-0.455932
-0.7596679	วิธีทำ ข้าว	-0.6232493
-0.7596679	วิธีทำ คะน้า	0
-0.2825466	วิธีทำ ผัด	-0.5133333
-0.1249387	วินาที </s>
-0.30103	วิฟ มี
-0.06694679	วิลลิส เล่น	-0.79292
-1.041393	วิศวะ กับ	-0.733606
-1.041393	วิศวะ กี่	-0.5115944
-1.041393	วิศวะ ขาย	-0.8016323
-0.5642715	วิศวะ มี	-1.122178
-1.041393	วิศวะ ลด	-0.7549214
-0.5642715	วิศวะ เปิด	-1.056905
-0.4771213	ว่า มี	-0.8426718
-0.2552725	ว่า อะไร	-0.7017332
-0.9120448	ว่าง </s>
-1.088136	ว่าง ตอน	-0.6915776
-0.6110148	ว่าง บ้าง	0.8224447
-0.9120448	ว่าง มั้ย	1.248324
-1.213075	ว่าง วัน	-0.5668277
-0.6110148	ว่าง ไหม	-0.1669092
-0.06694679	ศาลา พระเกี้ยว	0
-0.7781513	ศิลปิน ริฮันนา
-0.7781513	ศิลปิน แสตมป์
-0.7781513	ศิลปิน โจอี้บอย
-0.4220737	ศุกร์ </s>
-0.7900504	ศุกร์ จัด	-0.7138191
-0.7900504	ศุกร์ ตอน	-0.7904959
-1.09108	ศุกร์ นี้	-0.4191828
-1.09108	ศุกร์ ยกเลิก	-0.5256717
-0.3802112	ศูนย์ บริการ	-0.5440681
-0.3802112	ศูนย์ อาหาร	-0.7683914
-0.07918125	สกาย วอล์ค	0
-0.06694679	สคิป หอ	-0.640978
-0.06694679	สตางค์ ไหม	0.1019361
-0.06694679	สตาร์บัค ใน	-0.8231962
-0.8346326	สตาร์วอร์ ฉาย	-0.8202744
-0.8346326	สตาร์วอร์ ที่	-0.8416467
-0.5336026	สตาร์วอร์ ภาค	-0.594042
-0.8346326	สตาร์วอร์ มี	-0.8402319
-0.8346326	สตาร์วอร์ ได้	-0.809706
-0.30103	สต็อป </s>
-0.6812412	สถานี รถ	-0.6910011
-0.1497623	สถานี อะไร	-1.186139
-0.06694679	สน ใจ	0
-0.5797836	สมัคร งาน	-0.7670999
-0.1995724	สมัคร สมาชิก	-0.60206
-0.6690068	สมาชิก มั้ย	1.248324
-0.6690068	สมาชิก มี	-0.8426718
-0.6690068	สมาชิก เมเจอร์	-0.7844002
-0.6690068	สมาชิก เอส	0.6462637
-0.06694679	สยอง ขวัญ	0
-0.3802112	สยาม สแควร์	-0.7257632
-0.3802112	สยาม เซนเตอร์	0
-0.0234811	สระ ผม	0
-0.05115252	สร้าง งาน	-0.6553894
-0.30103	สวิฟ </s>
-0.06694679	สวีท เซอเคิล	0
-1.313264	สอง </s>
-1.380211	สอง คน	-0.7871061
-1.556303	สอง ครึ่ง	-0.6869887
-0.9822713	สอง ชั่วโมง	-0.5296047
-1.556303	สอง ถึง	-0.6744962
-1.380211	สอง ที่	-0.8416467
-1.380211	สอง ที่นั่ง	0
-0.7966347	สอง ทุ่ม	-0.5321689
-1.313264	สอง นาที	-0.3338938
-1.556303	สอง นี้	-0.6218041
-1.20412	สอง มี	-0.701142
-1.380211	สอง ร้อย	0.7231036
-1.556303	สอง วัน	-0.6758022
-1.556303	สอง อาทิตย์	-0.5862657
-1.556303	สอง เดือน	-0.60206
-1.380211	สอง เรื่อง	-0.8051347
-1.459392	สอง ไป	-0.6594021
-1.380211	สอง ไส้	0
-0.0211893	สอน ทำ	-0.8864907
-0.06694679	สอบ </s>
-0.06694679	สะสาง บ้าง	1.09129
-0.4771213	สัก สิบ	-0.5196498
-0.3521825	สัก อย่าง	-0.60206
-0.03476211	สับ ทำ	-0.9947569
-0.07106335	สัปดาห์ นี้	-0.7126126
-0.9461246	สัปดาห์ หน้า	-0.640978
-0.6690068	สั่ง กี่	-0.8298134
-0.6690068	สั่ง ที่	-0.823966
-0.6690068	สั่ง รอบ	-0.7236758
-0.6690068	สั่ง ใน	-0.6618282
-0.3679768	สาขา </s>
-0.3679768	สาขา ของ	-0.8245764
-1.598426	สาม ครึ่ง	-0.5931052
-1.473487	สาม ชั่วโมง	-0.6793376
-1.172457	สาม ทุ่ม	-0.5373085
-1.473487	สาม นาที	-0.39794
-1.473487	สาม นี้	-0.6218041
-1.297396	สาม บ้าง	1.09129
-1.297396	สาม มิติ	0
-1.376577	สาม มี	-0.7679513
-1.297396	สาม ร้อย	0.7231036
-1.297396	สาม ร้าน	-0.8400772
-1.473487	สาม วัน	-0.6793571
-1.598426	สาม สิงหา	0
-1.075547	สาม สิบ	-0.491765
-1.297396	สาม หมู	-0.7895807
-0.7967933	สาม โมง	-0.5423864
-1.376577	สาม ไป	-0.6594021
-1.598426	สาม ไม่	-0.5625515
-0.3679768	สามย่าน กับ	-0.733606
-0.3679768	สามย่าน เปิด	-0.8061799
-0.4393327	สาย รหัส	0
-0.3424227	สาย ไหน	-0.7751121
-0.544068	สำหรับ สมาชิก	-0.7403626
-0.544068	สำหรับ สอง	-0.8266146
-0.544068	สำหรับ ห้า	-0.8307793
-0.1249387	สิงหา มี	-0.576738
-1.783546	สิบ </s>
-1.607455	สิบ ชั่วโมง	-0.8304575
-1.783546	สิบ ถึง	-0.6485605
-0.762357	สิบ นาที	-0.59914
-1.306425	สิบ บาท	-0.9316031
-1.607455	สิบ มี	-0.8402319
-1.607455	สิบ มีนา	0
-1.607455	สิบ ร้าน	-0.8400772
-1.908485	สิบ วินาที	0
-1.063387	สิบ สอง	-0.7274227
-1.540508	สิบ สาม	-0.6268836
-1.385606	สิบ สี่	-0.7126496
-1.181486	สิบ ห้า	-0.5472978
-1.607455	สิบ อันดับ	0.2688453
-1.908485	สิบ เจ็ด	-0.4828736
-2.385606	สิบ เพลง
-1.607455	สิบ เมนู	-0.8030367
-1.385606	สิบ เอ็ด	0
-0.6452436	สิบ โมง	-0.7918097
-0.6368221	สิบเอ็ด </s>
-0.6368221	สิบเอ็ด วัน	-0.5952385
-0.5118834	สิบเอ็ด โมง	-0.5038313
-0.09691001	สิ้น เดือน	-0.3853509
-1.39794	สี่ </s>
-0.9208187	สี่ จ่าย	-0.7160033
-1	สี่ ชั่วโมง	-0.7457819
-0.7212464	สี่ ทุ่ม	-0.619319
-1.522879	สี่ พรุ่งนี้	-0.4675598
-1.30103	สี่ มี	-0.7679513
-1	สี่ สิบ	-0.4967285
-1.39794	สี่ เดือน	-0.3853509
-0.7447275	สี่ โมง	-0.7663795
-1.30103	สี่ ไป	-0.6594021
-0.09691001	สุกี้ แห้ง	0
-0.5947608	สุด </s>
-0.9927008	สุด กี่	-0.7804397
-1.293731	สุด ที่	-0.8416467
-1.469822	สุด พรุ่งนี้	-0.6811503
-1.293731	สุด มี	-0.8426718
-0.9927008	สุด ราคา	-0.8279771
-1.594761	สุด วัน	-0.5668277
-1.372912	สุด สถานี	-0.2430381
-1.293731	สุด สอง	-0.8266146
-0.9927008	สุด อยู่	-0.8497159
-1.469822	สุด เมื่อ	-0.6159958
-1.293731	สุด ได้	-0.8336182
-0.39794	สุดท้าย ของ	-0.6419315
-0.39794	สุดท้าย พรุ่งนี้	-0.6811503
-0.5228788	สุภาพ ก็ได้	-0.7259116
-0.2218488	สุภาพ หน่อย	1.003091
-0.30103	สุ่ม เพลง
-0.03476211	สูง สุด	-0.986544
-0.0211893	สูตร อาหาร	-1.281791
-0.60206	สเตย์ </s>
-0.60206	สเตย์ วิฟ
-0.5929166	สเต็ก งบ	-0.5854607
-0.8939466	สเต็ก รอบ	-0.7236758
-0.5929166	สเต็ก ร้าน	-0.6312182
-0.8939466	สเต็ก สามย่าน	-0.60206
-0.8939466	สเต็ก ใน	-0.6618282
-0.1663314	สแควร์ มี	-1.334786
-0.8653014	สแควร์ รับ	-0.7704644
-0.9444827	สแควร์ วัน	-0.7724742
-0.3853509	ส่ง งาน	-0.612038
-0.3273589	ส่ง รายงาน	0
-0.0234811	ส่วน ลด	-0.4860761
-0.03476211	ส้ม ตำ	0
-0.06694679	ส้มตำ ข้าง	-0.69897
-0.004852503	หก โมง	-0.6620132
-1.810233	หนัง ของ	-0.7249057
-1.731051	หนัง ทั้งหมด	-0.7781512
-1.128991	หนัง ที่	-1.086144
-1.731051	หนัง ประเภท	0
-1.731051	หนัง ฟรี	0
-1.810233	หนัง ราคา	-0.7518224
-1.731051	หนัง ล่วง	0
-1.731051	หนัง สยอง	0
-1.46781	หนัง อยู่	-0.6749798
-1.25393	หนัง เมเจอร์	-0.1823403
-0.2864861	หนัง เรื่อง	-0.2068666
-1.25393	หนัง เอส	0.2126081
-1.430021	หนัง แนว	0
-1.731051	หนัง แอ็คชั่น	0
-1.430021	หนัง ไทย	-0.6390435
-0.3357921	หนังสือ สอง	-0.7973253
-0.4149733	หนังสือ อะไร	-0.551917
-0.07918125	หนี ไฟ	-0.6368221
-0.845098	หนึ่ง ชั่วโมง	-0.6056443
-0.90309	หนึ่ง ทุ่ม	-0.491551
-0.9700368	หนึ่ง บ้าง	1.09129
-1.049218	หนึ่ง มี	-0.7679513
-0.6690068	หนึ่ง ร้อย	0.4542583
-0.9700368	หนึ่ง แถม	0
-1.049218	หนึ่ง ไป	-0.6594021
-0.1117926	หน่อย </s>
-0.6720979	หน่อย นะ	-0.6663116
-0.4259687	หน้า </s>
-0.5672979	หน้า มี	-1.117804
-1.20412	หน้า วัน	-0.5668277
-1.20412	หน้า สี่	-0.5158738
-0.90309	หน้า ได้	-0.8336182
-0.7781513	หมด </s>
-0.4771213	หมด ของ	-0.8245764
-0.4771213	หมด เขต	0
-0.8846066	หมอ กี่โมง	0.01336396
-0.8846066	หมอ บ่าย	-0.3849319
-0.7596679	หมอ วันที่	-0.4436975
-0.7596679	หมอ เร็ว	-0.5824645
-0.7596679	หมอ ไป	-0.6905776
-1.09691	หมู กรอบ	0
-1.09691	หมู ทอด	-0.6118199
-0.9208187	หมู ปิด	-0.5160393
-0.9208187	หมู ปิ้ง	-0.5762527
-0.6197888	หมู สับ	0
-0.6197888	หมู แดง	-0.4771212
-0.05115252	หมูสับ </s>
-0.90309	หยุด </s>
-0.90309	หยุด ก่อน
-0.90309	หยุด ชั่ว
-0.90309	หยุด เพลง
-0.4771213	หรือ ซาวด์แทรก	0
-0.4771213	หรือ สตาร์วอร์	-0.7763822
-0.7781513	หรือ เปล่า	0
-0.9420081	หลัง จากนี้	0
-1.066947	หลัง สอง	-0.5542873
-1.066947	หลัง สาม	-0.5639396
-1.066947	หลัง สิบ	-0.596665
-0.845098	หลัง สี่	-0.6866363
-0.7659168	หลัง สุด	-0.822434
-0.9420081	หลัง หก	1.255272
-0.06694679	หลับ อะ	-0.3834889
-0.7596679	หวาน </s>
-0.5835766	หวาน มี	-0.8426718
-0.6627578	หวาน อะไร	-0.551917
-0.7596679	หวาน ให้	-0.6661775
-0.4259687	หอ ยู	-0.5762527
-0.2498775	หอ ใน	-0.7757716
-0.09691001	หอย ทอด	-0.6118199
-0.0211893	หา วิธีทำ	0
-0.07918125	หาย ติดต่อ	-0.5440681
-0.06694679	ห่าง จอ	0
-0.09108047	ห้อง น้ำ	-0.8305393
-0.8692317	ห้อง ละหมาด	0
-1.790051	ห้า </s>
-1.48902	ห้า คน	-0.7871061
-1.48902	ห้า จะ	-0.7814289
-1.665112	ห้า ตอน	-0.6915776
-1.665112	ห้า ทุ่ม	-0.6748363
-0.4098392	ห้า นาที	-0.4282016
-1.18799	ห้า บาท	-0.7160033
-1.568202	ห้า มี	-0.7679513
-1.18799	ห้า ร้อย	0.4542583
-1.790051	ห้า วัน	-0.5952385
-1.48902	ห้า สิบ	-0.8231037
-1.48902	ห้า หอ	-0.4860761
-1.48902	ห้า อันดับ	0.2688453
-2.267172	ห้า เพลง
-1.011899	ห้า โมง	-0.6251359
-1.568202	ห้า ไป	-0.6594021
-0.1760913	ห้าม เล่น	-0.1842091
-0.30103	อกหัก </s>
-0.06694679	อด ทน	0
-0.4839607	อยาก กิน	-0.8389289
-0.8519375	อยาก ตื่น	-0.7918526
-0.80618	อยาก ทำ	-0.50515
-0.6300887	อยาก นอน	-1.028599
-1.329059	อยาก ฟัง	0
-1.329059	อยาก สระ	0.4336556
-1.389166	อยู่ </s>
-0.7201593	อยู่ ชั้น	-1.277066
-1.088136	อยู่ ตรง	-0.5256717
-0.3412425	อยู่ ที่	-1.687639
-0.8662874	อยู่ บน	0.07572079
-2.167317	อยู่ ใน
-1.389166	อยู่ ไหน	-0.8414485
-0.0234811	อย่า ลืม	0
-0.69897	อย่าง หน่อย	-0.05490088
-0.39794	อย่าง ใน	-0.6695151
-0.60206	อย่าง ไร	-0.1371732
-0.3357921	อย่างไร </s>
-0.3357921	อย่างไร บ้าง	0.8224447
-0.4522977	อร่อย </s>
-0.3273589	อร่อย กว่า	-1
-0.9294189	อร่อย ไหม	0.1019361
-0.4313638	ออก จาก	-0.6413133
-0.7323937	ออก ทาง	-0.4203936
-0.6532125	ออก โรง	-0.6060045
-1.130334	ออก ไป
-0.39794	ออฟ ยู	-0.4238757
-0.69897	ออฟ ออฟ
-0.06694679	ออสการ์ มั้ย	1.248324
-0.1840602	อะ </s>
-0.9622114	อะ กี่	-0.5115944
-0.9622114	อะ ตื่น	-0.7725474
-1.263241	อะ ไร	0.03891802
-0.832201	อะไร </s>
-2.149219	อะไร กิน	-0.6878337
-2.450249	อะไร ก็	0.4771213
-2.149219	อะไร ก็ได้	-0.6232493
-1.371068	อะไร ฉาย	-1.004799
-1.171496	อะไร ดี	-1.124601
-1.450249	อะไร ต้อง	-0.8616052
-1.848189	อะไร นะ	-0.1291924
-1.547159	อะไร น่า	0.3547148
-0.3914436	อะไร บ้าง	-0.4253399
-1.973128	อะไร พิเศษ	-0.544068
-1.973128	อะไร มั้ย	1.248324
-1.070038	อะไร วอล	0
-2.149219	อะไร สัก	-0.4436975
-1.450249	อะไร อยู่	-1.258706
-2.149219	อะไร อีก	-0.6877618
-1.973128	อะไร เข้า	-0.7871061
-1.605151	อะไร ได้	-0.853116
-2.149219	อะไร ไป	-0.6905776
-2.149219	อะไร ไหม	0.2480641
-0.7659168	อะไรวอล </s>
-0.7659168	อะไรวอล ฉาย	-0.8202744
-0.7659168	อะไรวอล ที่	-0.8416467
-0.7659168	อะไรวอล บ้าง	1.09129
-0.7659168	อะไรวอล หรือ	-0.6690068
-0.2218488	อักษร มี	-0.9573675
-0.5228788	อักษร ร้าน	-0.6550574
-0.845098	อังคาร </s>
-0.845098	อังคาร ตอน	-0.6840572
-0.845098	อังคาร ทั้งหมด	-0.455932
-0.845098	อังคาร ว่าง	-0.5769756
-0.9700368	อังคาร ห้า	-0.5576048
-0.9700368	อังคาร ไป	-0.5829437
-0.03476211	อันดับ แรก	-1
-0.763428	อันเดอร์วอเตอร์เวิล์ด ปิด	-0.4490926
-0.462398	อันเดอร์วอเตอร์เวิล์ด ราคา	-0.7237936
-0.763428	อันเดอร์วอเตอร์เวิล์ด อยู่	-0.5139239
-0.763428	อันเดอร์วอเตอร์เวิล์ด เปิด	-0.5563025
-0.69897	อัลบั้ม อะไร
-0.39794	อัลบั้ม เดอะ
-0.640978	อาทิตย์ </s>
-0.9420081	อาทิตย์ ถึง	-0.6744962
-0.3679768	อาทิตย์ นี้	-0.4552581
-0.9420081	อาทิตย์ หน้า	-0.5617968
-0.03778856	อาบ น้ำ	-0.7096938
-0.30103	อาย ออฟ
-0.06694679	อายุ เท่าไหร่	0.90309
-1.750123	อาหาร กลางวัน	0
-1.273001	อาหาร คณะ	-0.763428
-1.750123	อาหาร ค่ำ	0
-1.352183	อาหาร จีน	0
-1.352183	อาหาร ญี่ปุ่น	0
-0.9719713	อาหาร ตาม	0
-1.574031	อาหาร ตึก	0
-0.9719713	อาหาร ที่	-0.9072952
-1.750123	อาหาร นี้	-0.6218041
-1.574031	อาหาร มหิต	0
-1.750123	อาหาร มังสวิรัติ	0
-1.574031	อาหาร ร้าน	-0.8400772
-1.574031	อาหาร หอ	-0.4860761
-1.653213	อาหาร อยู่	-0.5139239
-1.352183	อาหาร เกาหลี	0
-1.750123	อาหาร เช้า	-0.669515
-1.750123	อาหาร เย็น	-0.6611814
-1.352183	อาหาร เวียดนาม	0
-1.653213	อาหาร แนะนำ	-0.7303785
-1.051152	อาหาร ไข่	-0.08715016
-1.352183	อาหาร ไทย	-0.5873368
-1.176091	อาหาร ไหน	-0.9202368
-0.06694679	อินเซปชั่น ได้	-0.809706
-1.79796	อีก </s>
-0.8736804	อีก กี่	-0.9675265
-0.7893595	อีก ครึ่ง	-1.180208
-0.7645359	อีก ชั่วโมง	-1.042264
-1.89487	อีก ที	0.5314789
-1.154507	อีก นาน	0.09691
-1.89487	อีก ปะ	0.2552725
-2.019808	อีก ยี่	0.845098
-2.019808	อีก ยี่สิบ	0
-1.89487	อีก รอบ	-0.6846119
-1.718778	อีก สอง	-0.7973253
-1.241657	อีก สิบ	-0.9044282
-2.019808	อีก สิบเอ็ด	-0.4881167
-2.019808	อีก สี่	-0.5563025
-1.718778	อีก หน่อย	-0.7412019
-0.7645359	อีก ห้า	-1.221379
-1.718778	อีก แปป	0
-1.59384	อีก ไหม	-0.007208407
-0.30103	อีกรอบ </s>
-0.09691001	อีเมล ตอน	-0.6840572
-0.09691001	อีเมล์ ตอน	-0.6725265
-1.447158	อื่น </s>
-0.845098	อื่น ปะ	0.2552725
-0.6690068	อื่น ยังไง	0.5166298
-0.544068	อื่น อีก	-0.6820473
-0.845098	อื่น ไหม	0.2480641
-0.07918125	อุปกรณ์ กีฬา	0
-0.3679768	อเมซอน กี่	-0.8298134
-0.3679768	อเมซอน ที่	-0.823966
-0.06694679	อ่าน หนังสือ	-0.5762527
-0.07918125	อ้อม เด็ก	-0.5440681
-0.3679768	อ้อย ทำ	-0.8318698
-0.3679768	อ้อย ร้าน	-0.6550574
-0.30103	อ้าว </s>
-0.06694679	ฮันนี่มูน ซีท	0
-0.3679768	ฮาจิบัง ต้อง	-0.822434
-0.3679768	ฮาจิบัง ไหม	0.1019361
-0.09691001	เกลือ เท่า	-0.5905464
-0.3802112	เกาหลี อะไร	-0.551917
-0.3802112	เกาหลี ไหม	0.1688828
-0.3679768	เกาเหลา ที่	-0.8416467
-0.3679768	เกาเหลา สาม	-0.8226295
-0.06694679	เกิน สี่	-0.7535831
-0.06694679	เกี่ยว กับ	-0.79292
-0.6368221	เก้า เอ	-0.60206
-0.6368221	เก้า แบบ	-0.8154755
-0.3735807	เก้า โมง	-0.419849
-0.06694679	เขต วัน	-0.8098657
-0.07918125	เขียน ได้	-0.6594615
-0.09691001	เขียว หวาน	-0.6159958
-0.90309	เข้า รึยัง	0
-0.90309	เข้า วัน	-0.8098657
-0.90309	เข้า ออก	-0.7359536
-0.90309	เข้า เมื่อไหร่	0
-0.60206	เข้า โรง	-0.7614559
-0.90309	เข้า ใหม่	-0.768258
-0.4149733	เครดิต พารากอน	-0.7473373
-0.3357921	เครดิต ได้	-0.8336182
-0.3679768	เครป ศาลา	0
-0.3679768	เครป หอ	-0.4860761
-0.07918125	เครือ อะไร	-0.7090173
-1.30103	เครื่อง </s>
-0.60206	เครื่อง ดนตรี	0
-0.60206	เครื่อง ประดับ	0
-0.60206	เครื่อง เขียน	0
-0.06694679	เคลียร์ ตาราง	-0.4828736
-0.06694679	เคเอฟซี ใช้	-0.7516763
-0.9822713	เงิน ที่	-0.6332819
-0.90309	เงิน ยี่	0.60206
-0.90309	เงิน สอง	-0.8266146
-0.90309	เงิน สูง	0.2688453
-0.90309	เงิน หนึ่ง	-0.7403626
-0.90309	เงิน ห้า	-0.8307793
-0.90309	เงิน เท่าไร	-0.544068
-0.7781513	เงียบ </s>
-1.079181	เงียบ เงียบ
-0.30103	เงียบ ได้	-0.8257928
-0.3679768	เจฟเฟอร์ ที่	-0.8381677
-0.3679768	เจฟเฟอร์ ไหม	0.1019361
-0.8750613	เจียว </s>
-0.8750613	เจียว ต้อง	-0.6183141
-0.8750613	เจียว ยังไง	0.6627578
-0.8750613	เจียว หน่อย	-0.05490088
-0.8750613	เจียว หมูสับ	0.2552725
-0.8750613	เจียว ใช้	-0.5298276
-0.6197888	เจ็ด เดือน	-0.2041199
-0.1674911	เจ็ด โมง	-0.5113844
-0.07918125	เจ้า ของ	-0.7249057
-0.7533277	เจ๊ ดาว	-0.7579479
-0.4522977	เจ๊ อ้อย	0
-0.7533277	เจ๊ แดง	-0.69897
-0.7533277	เจ๊ โอว	0
-0.06694679	เชดส์ เรตติ้ง	0
-0.30103	เชพ ออฟ
-0.5314789	เชื่อม รถ	-0.6910011
-0.2304489	เชื่อม สยาม	0
-0.243038	เช็ค งาน	-0.6553894
-0.544068	เช็ค อีเมล์	0
-0.07918125	เช่า ไหม	0.1688828
-0.7439371	เช้า </s>
-1.18327	เช้า ทุก	-0.2475542
-1.007179	เช้า นะ	-0.0200479
-1.308209	เช้า นี้	-0.4191828
-1.18327	เช้า พรุ่งนี้	-0.6901516
-0.8822398	เช้า วัน	-0.6280571
-1.18327	เช้า หน่อย	-0.05490088
-1.007179	เช้า อะ	-0.7949314
-1.007179	เช้า เช้า	-0.8001308
-0.30103	เซ เยส
-0.06694679	เซงเซียมอี๊ เมนู	-0.6449685
-0.07918125	เซนเตอร์ ไป	-0.6594021
-0.06694679	เซอเคิล เมนู	-0.6449685
-0.06694679	เซเว่น กี่	-0.8298134
-0.3679768	เซ็นทรัลเวิลด์ มี	-0.8406395
-0.3679768	เซ็นทรัลเวิลด์ รอบ	-0.8233787
-0.5006024	เดอะ บีสต์	0
-0.8016323	เดอะ มูฟวี่	0
-0.8016323	เดอะ ล็อบสเตอร์	0
-1.579784	เดอะ เรด
-1.579784	เดอะ เววเวต
-0.8016323	เดอะ แฟลช	0
-1.066947	เดือน </s>
-1.066947	เดือน กุมภา	0
-0.69897	เดือน นี้	-0.5679287
-0.2887955	เดือน หน้า	-0.5492076
-0.3802112	เด็ก เท่าไหร่	0.9700367
-0.3802112	เด็ก ไหม	0.1688828
-1.102662	เด็ด ต้อง	-0.822434
-0.4036923	เด็ด บ้าง	0.4450263
-1.102662	เด็ด รอบ	-0.8005159
-0.4036923	เด็ด เด็ด	-1.273306
-1.384712	เตือน </s>
-1.384712	เตือน กิน	-0.6878337
-1.384712	เตือน กินข้าว	-0.5642715
-1.141674	เตือน ครึ่ง	-0.6900152
-0.6645525	เตือน ด้วย	-0.2658227
-1.50965	เตือน พรุ่งนี้	-0.5680248
-1.384712	เตือน ลางาน	0
-1.384712	เตือน วัน	-0.6145685
-1.384712	เตือน สาม	-0.6841209
-1.384712	เตือน สิบ	-0.6165598
-1.384712	เตือน ห้า	-0.4848768
-1.50965	เตือน เที่ยง	-0.5496719
-1.384712	เตือน เลิก	-0.3309932
-1.083682	เตือน ให้	-0.6307052
-1.384712	เตือน ไป	-0.6905776
-0.09691001	เถอะ </s>
-0.30103	เทค มาย
-0.06694679	เทพ มรณะ	0
-0.7403627	เที่ยง </s>
-0.9444827	เที่ยง คืน	0
-1.467361	เที่ยง ด้วย	-0.2480939
-1.342423	เที่ยง ถึง	-0.6744962
-0.3881802	เที่ยง นะ	0.8250508
-1.166331	เที่ยง นี้	-0.838312
-1.166331	เที่ยง หน่อย	-0.7412019
-0.30103	เทเลอร์ สวิฟ
-0.6557449	เท่า ไร	-0.660052
-0.1215851	เท่า ไหร่	0.0251838
-0.30103	เท่าไร </s>
-0.4771213	เท่าไร นะ	0.1260801
-0.007825337	เท่าไหร่ </s>
-0.06694679	เนย ไหม	0.1019361
-0.03476211	เนี่ย </s>
-0.1249387	เนื้อ เพลง
-0.4149733	เบอร์ ติดต่อ	-0.5440681
-0.3357921	เบอร์ โทร	0
-0.9542425	เบา หน่อย
-0.9542425	เบา อีก
-0.9542425	เบา เบา
-0.6532125	เบา เสียง
-0.09691001	เปรี้ยว หวาน	-0.6159958
-1.361728	เปลี่ยน </s>
-0.8846066	เปลี่ยน ประชุม	-0.5746218
-0.6627578	เปลี่ยน ผ้า	0
-0.8846066	เปลี่ยน เป็น	-0.5791972
-0.5835766	เปลี่ยน ได้	-0.8218267
-0.1249387	เปล่า </s>
-0.06694679	เปอร์เซ็นต์ </s>
-0.39794	เปิด กี่	-1.128894
-1.146128	เปิด ทุก	-0.3267354
-1.066947	เปิด มา	-0.79588
-1.066947	เปิด ยี่	0.60206
-1.066947	เปิด เกิน	0
-1.845098	เปิด เนื้อ
-1.146128	เปิด เพลง
-1.146128	เปิด ใหม่	-0.7150995
-0.8129134	เป็น กัน	-1.19793
-1.369216	เป็น บุฟเฟต์	-0.5672979
-1.290035	เป็น พากย์	0
-1.290035	เป็น วัน	-0.5162863
-1.290035	เป็น สี่	-0.7589118
-0.9890046	เป็น หนัง	-0.8201953
-0.6879746	เป็น อย่างไร	0
-1.369216	เป็น เจ้า	0
-1.290035	เป็น เพื่อน	-0.7201593
-1.165096	เป็น เวลา	-0.6454508
-1.068186	เป็น แบบ	-0.7275949
-1.134336	เพลง </s>
-1.134336	เพลง ก่อน	-0.4771212
-2.037426	เพลง ก่อนหน้า
-1.259275	เพลง ของ	-0.1447623
-2.037426	เพลง ครึ่ง
-1.736397	เพลง คู่
-1.259275	เพลง จาก	-0.5252199
-2.037426	เพลง ชะตา
-2.037426	เพลง ชูกา
-1.435367	เพลง ต่อไป
-2.037426	เพลง ที่แล้ว
-0.8613352	เพลง นี้	-0.1201997
-1.259275	เพลง บ้าง	1.09129
-2.037426	เพลง ฝน
-2.037426	เพลง ลูก
-1.736397	เพลง สเตย์
-2.037426	เพลง หน่อย
-2.037426	เพลง อกหัก
-1.560305	เพลง อะไร	-0.220306
-2.037426	เพลง อื่น
-2.037426	เพลง อ้าว
-2.037426	เพลง เชพ
-2.037426	เพลง เซ
-2.037426	เพลง เอฟเวอรี่ไทม์
-2.037426	เพลง แคนท์
-1.736397	เพลง โปรด	0
-2.037426	เพลง ใกล้
-2.037426	เพลง ไกล
-2.037426	เพลง ไอ
-0.1760913	เพลย์ลิส </s>
-0.06694679	เพลลิสต์ เพลง	-0.1800574
-0.5740313	เพลิง </s>
-0.5740313	เพลิง หน่อย	-0.05490088
-0.5740313	เพลิง เร็ว	-0.5824645
-1.255273	เพิ่ม การ	0
-0.9542425	เพิ่ม ตาราง	-0.510545
-0.2552725	เพิ่ม นัด	-0.5870146
-1.255273	เพิ่ม วัน	-0.6944343
-1.857332	เพิ่ม อีก
-1.255273	เพิ่ม เวลา	-0.6730343
-1.857332	เพิ่ม เสียง
-1.556303	เพิ่ม ใน	-0.4699427
-0.60206	เพื่อน กัน	-0.8197922
-0.7781513	เพื่อน คุย	-0.6389721
-0.7781513	เพื่อน วัน	-0.6805357
-0.60206	เพื่อน เหรอ	-0.60206
-0.06694679	เฟ้ย </s>
-1.210853	เมนู ต้ม	-0.5898255
-1.210853	เมนู ทอด	-0.6118199
-0.9098234	เมนู นี้	-0.6026207
-1.210853	เมนู รส	-0.5963077
-0.9098234	เมนู อะไร	-0.6927657
-1.034762	เมนู เด็ด	-0.8093824
-0.4327021	เมนู ไหน	-1.383154
-0.07918125	เมล์ สาย	-0.5149099
-0.8846066	เมื่อ วัน	-0.5668277
-0.4586379	เมื่อ วาน	0
-0.7596679	เมื่อ วานซืน	0
-0.7596679	เมื่อ ไหร่	0.006160259
-0.06694679	เมื่อคืน นอน	-0.8226295
-0.6690068	เมื่อวาน ฉัน	-0.5413622
-0.544068	เมื่อวาน นี้	-0.6806329
-0.544068	เมื่อวาน มี	-0.673648
-0.06694679	เมื่อไหร่ </s>
-0.8846066	เมเจอร์ ที่	-0.8317162
-0.2825466	เมเจอร์ พารากอน	-0.6252279
-0.8846066	เมเจอร์ ราคา	-0.748188
-0.8846066	เมเจอร์ แถว	-0.7259116
-0.30103	เยส </s>
-0.544068	เยอะ ตื่น	-0.8280647
-0.544068	เยอะ เยอะ	-0.69897
-0.544068	เยอะ ไหม	-0.834056
-0.6812412	เย็น </s>
-1.079181	เย็น ถึง	-0.6744962
-1.079181	เย็น นี้	-0.6898983
-0.90309	เย็น มี	-0.5676674
-1.20412	เย็น วัน	-0.5836257
-1.20412	เย็น วันนี้	-0.5139239
-1.079181	เย็น หน่อย	-0.05490088
-0.90309	เย็น เป็น	-0.8222351
-0.1249387	เย็นนี้ ยกเลิก	-0.5805203
-0.30103	เรด </s>
-0.06694679	เรตติ้ง เท่าไหร่	0.90309
-1.623249	เรา จบ
-0.3679768	เรา ต้อง	-1.206872
-0.845098	เรา สิบ	-0.7336496
-0.845098	เรา หก	1.109144
-0.845098	เรา เที่ยง	-0.6166187
-0.7403627	เริ่ม จับ	0.2552725
-0.7403627	เริ่ม ต้น	-0.4771213
-0.7403627	เริ่ม นับ	-0.5642715
-1.342423	เริ่ม เพลง
-0.7403627	เริ่ม ใหม่	-0.5779263
-0.7533277	เรียก ด้วย	-0.2480939
-0.1512677	เรียก รถ	-1.007049
-0.03476211	เรียง นัด	-1.09485
-0.9661418	เรียน กี่	-0.3654664
-0.9661418	เรียน ทุก	-0.2475542
-0.6651117	เรียน บ่าย	-0.1689127
-0.9661418	เรียน พิเศษ	-0.5228788
-0.6651117	เรียน วัน	-0.9116072
-1.09108	เรียน แปด	0.2174839
-0.07918125	เรียนพิเศษ อยู่	-0.6863809
-0.06694679	เรือ ร้าน	-0.8349977
-1.658011	เรื่อง คิล	0
-1.658011	เรื่อง ดรีม	0
-1.658011	เรื่อง ทองดี	0
-1.658011	เรื่อง บิวตี้	0.2688453
-1.658011	เรื่อง ฟิฟตี้	0
-1.356981	เรื่อง ย่อ	0
-1.055951	เรื่อง ลา	-1.124939
-1.356981	เรื่อง สตาร์วอร์	-0.6947122
-0.4867726	เรื่อง อะไร	-1.007841
-1.18089	เรื่อง อะไรวอล	-0.5314789
-1.658011	เรื่อง อินเซปชั่น	0
-1.356981	เรื่อง เดอะ	-0.6802878
-1.658011	เรื่อง เลโก	0
-1.658011	เรื่อง แฮรี่พอตเตอร์	-0.3332146
-1.658011	เรื่อง โลแกน	-0.60206
-0.8798602	เรื่อง ไหน	-0.9776279
-0.6283889	เร็ว </s>
-0.4522977	เร็ว ที่	-0.8209479
-0.6283889	เร็ว สุด	-0.6839929
-0.06694679	เลย อะ	-0.3834889
-0.243038	เลิก งาน	-0.6649348
-0.845098	เลิก เล่น
-0.30103	เลิฟ ยู
-0.09691001	เลี้ยง สาย	-0.5026754
-0.5496719	เลื่อน นัด	-0.5926185
-0.5910646	เลื่อน ประชุม	-0.7314078
-0.9890046	เลื่อน ส่ง	-0.4227636
-1.113943	เลื่อน เวลา	-0.5827549
-0.8129134	เลื่อน ไป	-0.8324478
-0.06694679	เลโก แบ็ทแมน	0
-1.724276	เล่น </s>
-1.724276	เล่น ซ้ำ
-1.724276	เล่น สิบ
-0.9461246	เล่น หนัง	-0.5290201
-1.724276	เล่น ห้า
-0.3093025	เล่น เพลง	-0.1088425
-0.7242759	เล่น โบว์ลิ่ง	-0.4259687
-0.7596679	เวลา </s>
-1.236789	เวลา ครึ่ง	-0.4858952
-1.361728	เวลา นัด	-0.5845906
-1.361728	เวลา ปลุก	-0.5948814
-1.236789	เวลา ว่าง	-0.6619865
-1.236789	เวลา สี่	-0.6532125
-0.5378191	เวลา เตือน	-0.58143
-1.236789	เวลา เรียน	-0.6492822
-1.060698	เวลา ไหน	-0.758217
-0.30103	เววเวต </s>
-0.3802112	เวียดนาม อะไร	-0.551917
-0.3802112	เวียดนาม ไหม	0.1688828
-0.06694679	เศรษฐศาสตร์ มี	-0.6885222
-0.09691001	เสนอ โปรเจค	0
-0.07918125	เสริมสวย อะไร	-0.551917
-0.07918125	เสร็จ แล้ว	-0.7613811
-1.028029	เสาร์ </s>
-1.028029	เสาร์ ติด	-0.4637573
-1.028029	เสาร์ ที่	-0.5986087
-0.4637573	เสาร์ นี้	-0.4560442
-1.028029	เสาร์ หน้า	-0.4648868
-1.028029	เสาร์ ไป	-0.5829437
-0.243038	เสียง </s>
-0.845098	เสียง หน่อย
-0.06694679	เสือ ร้อง	-0.146128
-0.03476211	เส้น ทาง	-1.057216
-0.06694679	เหมือน โรง	-0.8256487
-0.3679768	เหรอ </s>
-0.3679768	เหรอ คุย	-0.7516763
-0.06694679	เหรียญ สตางค์	0
-0.6690068	เหลือ งาน	-0.4821839
-0.544068	เหลือ อีก	-0.6366093
-0.544068	เหลือ ใน	-0.6844922
-0.3679768	เอ สิบ	-0.8342401
-0.3679768	เอ เก้า	-0.7311547
-0.544068	เอง ก็ได้	-0.5611013
-0.544068	เอง ขนาด	0
-0.544068	เอง หน่อย	-0.2010289
-0.06694679	เอช ราคา	-0.5591317
-0.07918125	เอทีเอม จุด	-0.6368221
-0.06694679	เอน นอน	-0.8069776
-0.7533277	เอฟ ที่	-0.8317162
-0.7533277	เอฟ มาบุญครอง	-0.69897
-0.7533277	เอฟ ราคา	-0.748188
-0.4522977	เอฟ แถว	-0.690196
-0.30103	เอฟเวอรี่ไทม์ </s>
-0.06694679	เอมอาที สถานี	-0.3099848
-0.01424044	เอส เอฟ	0
-0.69897	เอา ออก
-0.39794	เอา เพลง	-0.4128226
-0.06694679	เอ็กซ์ มั้ย	1.248324
-0.04139268	เอ็ด โมง	-0.5173337
-0.2218488	เอ็ม ดี	-1.080304
-0.5228788	เอ็ม มี	-0.8128823
-0.06694679	เอ็มเค ไหม	0.1019361
-0.30103	เฮท ยู
-0.09691001	แกง เขียว	0
-0.30103	แคนท์ เทค
-0.09691001	แคนเซิล นัด	-0.6863351
-0.3640817	แคลอรี่ </s>
-0.9661418	แคลอรี่ ข้าว	-0.6232493
-0.9661418	แคลอรี่ ผัด	-0.550317
-0.9661418	แคลอรี่ อาหาร	-0.6911798
-0.9661418	แคลอรี่ เมนู	-0.6419315
-0.30103	แค่ นี้
-0.09691001	แค่ไหน </s>
-0.01336396	แจ้ง เตือน	-0.5721081
-0.544068	แดง กับ	-0.79292
-0.544068	แดง รอบ	-0.7236758
-0.544068	แดง ใน	-0.6618282
-0.30103	แต่ง </s>
-0.06694679	แถม หนึ่ง	-0.79588
-1.221849	แถว จุฬา	-0.8161343
-0.9208187	แถว ที่	-0.8381677
-0.6197888	แถว นี้	-0.8072658
-1.221849	แถว หลัง	-0.763428
-1.221849	แถว อะไร	-0.775964
-1.221849	แถว เอช	0
-1.221849	แถว เอ็ม	-0.690196
-1.221849	แถว แถว	-0.7259116
-1.221849	แถว แอล	0
-0.9208187	แถว ไหน	-1.091571
-0.07918125	แท็กซี่ อยู่	-0.5139239
-0.3679768	แนว รัก	0
-0.3679768	แนว อะไร	-0.775964
-0.3802112	แนะนำ อาหาร	-0.6585414
-0.3802112	แนะนำ เมนู	-0.6184503
-0.9822713	แนะนำ ไหม	0.1688828
-1.260071	แบบ ชาบู	-0.6455257
-1.18089	แบบ ทรี	0
-1.260071	แบบ ปิ้ง	-0.6853972
-1.18089	แบบ สาม	-0.8226295
-1.18089	แบบ สุภาพ	-0.447158
-1.055951	แบบ อื่น	-0.455932
-1.18089	แบบ ฮันนี่มูน	0
-1.18089	แบบ เป็น	-0.7725474
-1.18089	แบบ เพื่อน	-0.7201593
-1.18089	แบบ โซฟา	0
-1.18089	แบบ โฟร์	0
-1.18089	แบบ ใส่	-0.7516763
-1.18089	แบบ ไหน	-0.758217
-0.06694679	แบ็ทแมน ยาว	-0.5192444
-1.217484	แปด ชั่วโมง	-0.6793376
-1.342423	แปด ว่าง	-0.5453324
-0.07135591	แปด โมง	-0.5554916
-0.06694679	แปป นึง	-0.6787666
-0.07918125	แผนที่ พารากอน	-0.7072201
-0.06694679	แพง สุด	-0.7985219
-0.06694679	แพทย์ </s>
-0.06694679	แฟลช </s>
-0.6368221	แรก </s>
-0.5118834	แรก ของ	-0.6419315
-1.113943	แรก คือ	-0.6462637
-0.9378521	แรก บ้าง	1.09129
-1.113943	แรก วัน	-0.6686037
-1.113943	แรก สุด	-0.6839929
-0.30103	แรนดอม เพลง
-0.30103	แรนด้อม เพลง
-0.07918125	แลก เงิน	-0.7303785
-0.8939466	แลนด์ บ้าง	1.09129
-0.8939466	แลนด์ มี	-0.8402319
-0.5929166	แลนด์ รอบ	-0.7763822
-0.8939466	แลนด์ เข้า	-0.7871061
-0.5929166	แลนด์ ได้	-1.090672
-0.06694679	และ กล้วย	-0.60206
-0.3424227	แล้ว </s>
-1.421604	แล้ว จะ	-0.7257632
-1.518514	แล้ว ตอน	-0.668614
-1.342423	แล้ว นอน	-0.3823349
-1.342423	แล้ว นะ	-0.0200479
-1.643453	แล้ว มี	-0.5984156
-1.342423	แล้ว เงียบ	-0.544068
-1.643453	แล้ว เตือน	-0.4961019
-1.041393	แล้ว เนี่ย	0
-1.342423	แล้ว เปลี่ยน	-0.7138191
-1.342423	แล้ว เฟ้ย	0
-1.643453	แล้ว เมื่อ	-0.5413622
-0.07918125	แว่น ได้	-0.6594615
-0.3679768	แสดง เรื่อง	-0.8154755
-0.3679768	แสดง ใน	-0.8231962
-0.30103	แสตมป์ </s>
-0.09691001	แห้ง </s>
-0.03476211	แอนด์ เดอะ	-0.9491331
-0.06694679	แอม ปาร์ค	0
-0.06694679	แอมปาร์ค อยู่	-0.7533277
-0.06694679	แอล มี	-0.8128823
-0.06694679	แอ็คชั่น เรื่อง	-0.6737532
-0.1597008	แฮรี่พอตเตอร์ ภาค	-0.4627632
-0.6368221	แฮรี่พอตเตอร์ รอบ	-0.8005159
-0.4427037	โกวาจี </s>
-1.20862	โกวาจี ก๋วยเตี๋ยว	-0.7883704
-1.384712	โกวาจี ขอ	-0.6592808
-1.986772	โกวาจี ขอบคุณ
-1.20862	โกวาจี จอง	-0.5026754
-1.287802	โกวาจี ที่	-0.7348062
-1.986772	โกวาจี บ๊ายบาย
-1.384712	โกวาจี มี	-0.6706455
-1.986772	โกวาจี ลา
-1.20862	โกวาจี วันนี้	-0.795052
-1.50965	โกวาจี อีก	-0.5201037
-1.986772	โกวาจี เพิ่ม
-1.986772	โกวาจี เรา
-1.141674	โกวาจี เล่น	-0.008117855
-1.986772	โกวาจี แรนด้อม
-0.06694679	โฆษณา ยาว	-0.5192444
-0.30103	โจอี้บอย </s>
-0.06694679	โจ๊ก สามย่าน	-0.60206
-0.10721	โซน อะไร	-1.188739
-0.80618	โซน เรียนพิเศษ	0
-0.06694679	โซฟา มั้ย	1.248324
-0.06694679	โดน รอบ	-0.8005159
-0.06694679	โทร เมเจอร์	-0.5247629
-0.07918125	โทรศัพท์ ได้	-0.6594615
-0.5563025	โบว์ลิ่ง ชื่อ	-0.7081134
-0.5563025	โบว์ลิ่ง มี	-0.7761304
-0.5563025	โบว์ลิ่ง ราคา	-0.6812413
-0.1760913	โปรด </s>
-0.09691001	โปรเจค วัน	-0.6475354
-0.30103	โปรแกรม </s>
-0.845098	โปรโมชัน ดู	-0.7403626
-0.845098	โปรโมชัน ทั้ง	-0.544068
-0.845098	โปรโมชัน ที่	-0.8416467
-0.845098	โปรโมชัน บ้าง	1.09129
-0.845098	โปรโมชัน มา	-0.7403626
-0.845098	โปรโมชัน อะไร	-0.6188637
-0.3357921	โปรโมชั่น อะไร	-0.8325995
-0.4149733	โปรโมชั่น ไหม	0.1688828
-0.06694679	โฟร์ ดี	-0.8286039
-0.4413631	โมง </s>
-0.9367731	โมง ครึ่ง	-1.076959
-1.252043	โมง ดี	-0.6307626
-1.884067	โมง ถึง	-0.5822814
-1.649984	โมง ทุก	-0.2535035
-2.252043	โมง ทุกวัน	0
-1.047924	โมง นะ	0.7058643
-1.729165	โมง บ้าง	0.8949953
-1.951014	โมง มี	-0.8414536
-1.951014	โมง ละ	-0.4860761
-1.884067	โมง วัน	-0.5674389
-1.649984	โมง วันนี้	-0.6948141
-2.127105	โมง สาม	-0.6608496
-1.951014	โมง สิบ	-0.8155176
-1.951014	โมง หน่อย	-0.7412019
-1.826075	โมง ห้า	-0.7401493
-1.210651	โมง เช้า	-0.5426418
-2.252043	โมง เป็น	-0.5791972
-1.266767	โมง เย็น	-0.2887956
-1.951014	โมง เหรอ	-0.60206
-1.553074	โมง แล้ว	-0.9408786
-2.252043	โมง ไป	-0.595781
-2.252043	โมง ไม่	-0.5625515
-0.8814481	โรง พารากอน	-0.8770397
-1.358569	โรง ลิโด้	0
-0.3732926	โรง หนัง	-0.983865
-0.6595993	โรง อาหาร	-0.8672711
-1.358569	โรง อื่น	-0.7403626
-1.358569	โรง เซ็นทรัลเวิลด์	-0.60206
-1.358569	โรง ไอแม็กซ์	0
-0.06694679	โรงหนัง เมเจอร์	-0.5247629
-0.06694679	โรตี ลุง	-0.60206
-0.06694679	โรแมนติก เรื่อง	-0.6737532
-0.3679768	โลแกน เข้า	-0.7871061
-0.3679768	โลแกน ได้	-0.809706
-0.07918125	โอ บี	-0.6892102
-0.06694679	โอว ตอน	-0.8107938
-0.06694679	โอโตยะ ไหม	0.1019361
-1.591065	ใกล้ </s>
-0.3606157	ใกล้ ที่	-1.231122
-0.8129134	ใกล้ แถว	-0.7259116
-0.8920946	ใกล้ ใกล้	-0.7185656
-0.8920946	ใกล้ ไหม	0.1688828
-0.69897	ใคร กำกับ	0
-1.477121	ใคร ร้อง
-0.7781513	ใคร เป็น	-0.7591834
-1.477121	ใคร แต่ง
-0.39794	ใคร แสดง	0
-0.06694679	ใจ บ้าง	1.09129
-0.06694679	ใช่ ไหม	0.1019361
-0.7132105	ใช้ งบ	-0.9590414
-1.01424	ใช้ บ้าง	1.09129
-0.4913617	ใช้ วัตถุดิบ	0
-0.4913617	ใช้ อะไร	-1.095985
-0.07918125	ใต้ ดิน	0
-0.4631105	ใน จุฬา	-0.328182
-1.4843	ใน ปฎิทิน	-0.6389721
-1.308209	ใน มี	-0.6885222
-1.4843	ใน วัน	-0.6475354
-1.4843	ใน วันนี้	-0.6869887
-1.308209	ใน วิศวะ	-0.8037053
-1.308209	ใน สอง	-0.8266146
-1.4843	ใน สัปดาห์	0.1222159
-1.4843	ใน หนึ่ง	-0.6320232
-1.308209	ใน อักษร	-0.690196
-2.08636	ใน อัลบั้ม
-1.78533	ใน เพลลิสต์	0.3679768
-1.308209	ใน เมนู	-0.6449685
-1.308209	ใน เรื่อง	-0.8354467
-1.308209	ใน แอมปาร์ค	0
-0.8893017	ใส่ น้ำตาล	0
-1.01424	ใส่ น้ำปลา	0
-0.8893017	ใส่ พริก	0
-0.8893017	ใส่ พริกไทย	0
-0.8893017	ใส่ เกลือ	0
-0.7132105	ใส่ ไข่	-0.8151348
-0.6139592	ใหม่ </s>
-0.7900504	ใหม่ ที่	-0.8381677
-0.7900504	ใหม่ บ้าง	1.09129
-0.7900504	ใหม่ อะไร	-0.6188637
-0.8692317	ใหม่ ไหม	0.1688828
-0.9622114	ให้ ชาร์จ	-0.5762527
-0.9622114	ให้ ดู	-0.7403626
-1.138303	ให้ ตอบ	-0.5898255
-1.138303	ให้ ที	0.5314789
-0.6611814	ให้ หน่อย	-0.4698742
-1.138303	ให้ เช็ค	-0.552842
-1.041393	ให้ เช่า	0
-0.9622114	ให้ ใช้	-0.8008944
-0.30103	ไกล </s>
-0.8239087	ไก่ ทอด	-0.7067953
-0.8239087	ไก่ ที่	-0.823966
-0.8239087	ไก่ รอบ	-0.7236758
-1	ไก่ หน่อย	-0.05490088
-0.8239087	ไก่ เจ๊	-0.7607771
-0.8239087	ไก่ ใน	-0.6618282
-1.352183	ไข่ </s>
-0.6532125	ไข่ ดาว	-0.2596374
-0.8750613	ไข่ ต้ม	-0.4436974
-1.051152	ไข่ พะโล้	0
-1.352183	ไข่ ลวก	0
-1.352183	ไข่ หน่อย	-0.05490088
-0.5740313	ไข่ เจียว	0
-1.176091	ไข่ และ	0
-0.0234811	ไง </s>
-1.361728	ได้ </s>
-1.583577	ได้ กี่	-0.8336852
-1.583577	ได้ กี่โมง	-0.229674
-1.106455	ได้ คะแนน	0
-1.583577	ได้ คือ	-0.6627578
-1.583577	ได้ ช้า	0.2688453
-1.320335	ได้ ถึง	-0.6977785
-1.583577	ได้ ถูก	-0.60206
-0.6213651	ได้ ที่	-1.603319
-1.185637	ได้ บ้าง	0.732268
-1.282547	ได้ มั้ย	0.9794784
-1.583577	ได้ ม้้ย	0
-1.583577	ได้ ยิน	0
-2.361728	ได้ ยี่
-1.282547	ได้ รางวัล	0
-2.361728	ได้ สิบ
-1.583577	ได้ ส่วน	0.4336556
-1.361728	ได้ แล้ว	-0.4900862
-1.106455	ได้ ไหม	-0.3317195
-0.06694679	ได้มั้ย </s>
-0.06694679	ได้ไหม ไม่	-0.8055895
-0.8750613	ไทย ที่	-0.7002286
-0.9542425	ไทย พาณิชย์	0
-0.8750613	ไทย หรือ	-0.6690068
-0.6118198	ไทย อะไร	-0.5788301
-0.8750613	ไทย เรื่อง	-0.7836837
-0.9542425	ไทย ไหม	0.1688828
-0.30103	ไนท์ </s>
-1.019116	ไป </s>
-1.541995	ไป กี่	-0.8375229
-1.718086	ไป จบ	-0.39794
-2.320146	ไป จาก
-1.541995	ไป ฉาย	-0.8202744
-1.718086	ไป ต้น	-0.4771213
-0.6211763	ไป ทาง	-1.349813
-1.718086	ไป ทำ	-0.5797836
-1.718086	ไป บ้าง	1.237418
-1.843025	ไป ประชุม	-0.4973247
-1.718086	ไป พรุ่งนี้	-0.5644698
-1.240965	ไป ยัง	0.1648103
-1.541995	ไป ร้าน	-0.8298581
-1.365904	ไป วัน	-0.4922704
-1.718086	ไป สอง	-0.6867356
-1.843025	ไป สิบ	-0.5196498
-1.718086	ไป หนึ่ง	-0.6320232
-1.843025	ไป ห้า	-0.5576048
-1.541995	ไป อยู่	-0.8269998
-1.541995	ไป อาบ	0.2340832
-1.541995	ไป เจ๊	-0.7607771
-1.843025	ไป เป็น	-0.5791972
-1.718086	ไป เรียน	-0.6492822
-1.541995	ไป โรง	-0.7377613
-1.541995	ไป ได้	-0.8238143
-0.06694679	ไผ่ ทอง	0
-0.06694679	ไผ่ทอง ขาย	-0.8016323
-0.4771213	ไฟ ให้	-0.7949314
-0.5563025	ไฟ ไป	-0.6594021
-0.6532125	ไฟ ไหม้	0
-0.3802112	ไฟฟ้า ใต้	0
-0.3802112	ไฟฟ้า ไป	-0.6594021
-0.30103	ไฟว์ </s>
-1.838849	ไม่ ชอบ
-0.6627578	ไม่ ต้อง	-0.7191064
-1.060698	ไม่ มี	-0.8402319
-1.060698	ไม่ รีบ	0
-1.060698	ไม่ ว่าง	-0.7883704
-1.060698	ไม่ สระ	0.4336556
-1.060698	ไม่ หลับ	0
-1.060698	ไม่ อยาก	-0.7792807
-1.060698	ไม่ เหมือน	0
-1.838849	ไม่ เอา
-0.06694679	ไม่ว่าง ทั้ง	-0.4259687
-0.06694679	ไม้ ละ	-0.640978
-0.1127043	ไร </s>
-0.7659168	ไร บ้าง	1.09129
-0.06694679	ไวไฟ ให้	-0.7949314
-0.06694679	ไส้ กี่	-0.8375229
-0.4558454	ไหน </s>
-2.077368	ไหน ขาย	-0.8016323
-2.077368	ไหน คล้าย	0
-2.077368	ไหน จบ	-0.690196
-2.077368	ไหน ฉาย	-0.8202744
-2.077368	ไหน ซื้อ	-0.7985219
-1.253459	ไหน ดี	-1.146321
-1.600247	ไหน ทำ	-0.9590413
-1.855519	ไหน ที่	-1.035625
-2.077368	ไหน นะ	-0.0200479
-1.475308	ไหน น่า	-0.9405628
-2.077368	ไหน บิงซู	0
-0.7415758	ไหน บ้าง	-0.1808832
-1.475308	ไหน ปิด	-1.19382
-2.156549	ไหน ผ่าน	0
-2.077368	ไหน มา	-0.7403626
-1.299217	ไหน มี	-0.954556
-2.156549	ไหน รับ	-0.7168816
-1.299217	ไหน อร่อย	-0.525426
-2.077368	ไหน เกี่ยว	0
-1.378398	ไหน เด็ด	-1.273306
-2.077368	ไหน เปิด	-0.8061799
-2.156549	ไหน เป็น	-0.7591834
-2.077368	ไหน แถว	-0.8182259
-2.077368	ไหน แล้ว	-0.5818566
-2.156549	ไหน ได้	-0.7488619
-0.05206204	ไหม </s>
-1.123125	ไหม กว่า	-1.084934
-1.600247	ไหม วันนี้	-0.7569619
-0.09691001	ไหม้ </s>
-0.0953835	ไหร่ </s>
-0.7720771	ไหร่ บ้าง	0.8224447
-0.3679768	ไห้ เจ๊	-0.6560417
-0.3679768	ไห้ ไป	-0.8324478
-1.230449	ไอ เลิฟ
-0.1512677	ไอ เอ็ม	-0.7160033
-1.230449	ไอ เฮท
-0.6690068	ไอติม พาราโบลา	-0.60206
-0.6690068	ไอติม รส	-0.6802878
-0.6690068	ไอติม ไผ่	0
-0.6690068	ไอติม ไผ่ทอง	0
-0.07918125	ไอที อะไร	-0.551917
-0.06694679	ไอรอนแมน มี	-0.8426718
-0.06694679	ไอเดีย ใช้	-0.7516763
-0.06694679	ไอแม็กซ์ ไม่	-0.8055895

\3-grams:
-0.09691001	หมู กรอบ ที
-0.09691001	ทอด กระเทียม ต้อง
-0.03476211	<s> กระแส ตอบ
-0.07918125	ธนาคาร กรุงศรี อยู่
-0.07918125	ธนาคาร กรุงเทพ อยู่
-0.1249387	นาที กลับ บ้าน
-0.3679768	นี่ กลับ บีทีเอส
-0.3679768	นี่ กลับ เอมอาที
-0.06694679	ตรง กลาง ว่าง
-0.09691001	อาหาร กลางวัน หน่อย
-0.06694679	<s> กล้วย ปิ้ง
-0.06694679	และ กล้วย ราคา
-0.06694679	มาก กว่า กัน
-0.01772877	อร่อย กว่า กัน
-0.0234811	ไหม กว่า จะ
-0.07918125	ธนาคาร กสิกร อยู่
-0.09691001	ทำ กะเพรา หมูสับ
-0.69897	ผัด กะเพรา ที
-0.69897	ผัด กะเพรา ยังไง
-0.69897	ผัด กะเพรา ใช้
-0.69897	ผัด กะเพรา ไก่
-0.06694679	ก๋วยเตี๋ยว กัญชา </s>
-0.01424044	กว่า กัน </s>
-0.06694679	ติด กัน สำหรับ
-0.09691001	มักโรนี กัน </s>
-0.1760913	มาม่า กัน </s>
-0.6532125	มาม่า กัน เถอะ
-0.0234811	ละ กัน </s>
-0.0234811	เป็น กัน เอง
-0.06694679	เพื่อน กัน ก็ได้
-0.06694679	คล้าย กับ ลา
-0.09691001	จันทร์ กับ พุธ
-0.06694679	ซอลบิง กับ ซอบิงโก
-0.06694679	นัด กับ หมอ
-0.06694679	วิศวะ กับ ร้าน
-0.06694679	สามย่าน กับ ร้าน
-0.06694679	เกี่ยว กับ เพลง
-0.06694679	แดง กับ ส้ม
-0.09691001	เพิ่ม การ แจ้ง
-0.3357921	ร้าน กาแฟ กี่
-0.4149733	ร้าน กาแฟ อะไร
-0.06694679	ใคร กำกับ เรื่อง
-0.1249387	ยกเลิก กิจกรรม พรุ่งนี้
-0.6766936	<s> กิน อะไร
-0.5006024	<s> กิน อาหาร
-0.5006024	<s> กิน เคเอฟซี
-0.05799195	นัด กิน ข้าว
-0.05115252	นี้ กิน อะไร
-0.09691001	น่า กิน </s>
-0.8750613	น่า กิน บ้าง
-0.01772877	บาท กิน อะไร
-0.03476211	มา กิน อาหาร
-0.5929166	อยาก กิน ชาบู
-0.8939466	อยาก กิน ผัด
-0.5929166	อยาก กิน สเต็ก
-0.8939466	อยาก กิน ฮาจิบัง
-0.8939466	อยาก กิน ไก่
-0.09691001	อะไร กิน ดี
-0.09691001	เตือน กิน ยา
-0.39794	นัด กินข้าว วัน
-0.39794	นัด กินข้าว วันนี้
-0.09691001	เตือน กินข้าว ตอนเที่ยง
-0.07918125	อุปกรณ์ กีฬา ได้
-0.5740313	<s> กี่ แคลอรี่
-0.2218488	<s> กี่ โมง
-0.06694679	กาแฟ กี่ ร้าน
-0.09691001	ข้าว กี่ นัด
-0.04139268	จบ กี่ โมง
-0.06694679	ฉาย กี่ โมง
-0.06694679	ชั่วโมง กี่ โมง
-0.1249387	ตอน กี่ โมง
-0.01772877	ตื่น กี่ โมง
-0.07918125	ถึง กี่ โมง
-0.06694679	นาที กี่ โมง
-0.60206	นี้ กี่ แคลอรี่
-0.20412	นี้ กี่ โมง
-0.1249387	ประชุม กี่ โมง
-0.01258913	ปิด กี่ โมง
-0.09691001	ผัดซีอิ๊ว กี่ แคลอรี่
-0.05115252	พรุ่งนี้ กี่ โมง
-0.06694679	มา กี่ ปี
-0.5563025	มี กี่ ชั้น
-0.6532125	มี กี่ นัด
-0.4771213	มี กี่ สาขา
-0.02227639	ยาว กี่ นาที
-0.06694679	รอบ กี่ โมง
-0.06694679	ราคา กี่ เปอร์เซ็นต์
-0.06694679	วิศวะ กี่ โมง
-0.06694679	สั่ง กี่ ร้าน
-0.03476211	สุด กี่ โมง
-0.06694679	อะ กี่ โมง
-1.060698	อีก กี่ งาน
-1.185637	อีก กี่ ชั่วโมง
-0.1576079	อีก กี่ นาที
-1.185637	อีก กี่ วัน
-0.06694679	อเมซอน กี่ ที่
-0.06694679	เซเว่น กี่ ที่
-0.01523997	เปิด กี่ โมง
-0.09691001	เรียน กี่ โมง
-0.06694679	ได้ กี่ วัน
-0.06694679	ไป กี่ คน
-0.06694679	ไส้ กี่ บาท
-0.06694679	ตื่น กี่โมง ดี
-0.03476211	ถึง กี่โมง </s>
-0.09691001	พรุ่งนี้ กี่โมง </s>
-0.1249387	หมอ กี่โมง </s>
-0.06694679	ได้ กี่โมง </s>
-0.1249387	เดือน กุมภา มี
-0.06694679	นั้น ก็ ได้
-0.1760913	อะไร ก็ ได้
-0.06694679	กัน ก็ได้ </s>
-0.06694679	สุภาพ ก็ได้ นะ
-0.09691001	อะไร ก็ได้ หน่อย
-0.06694679	เอง ก็ได้ </s>
-0.06694679	จบ ก่อน สอง
-0.2218488	เพลง ก่อน ซัก
-0.69897	เพลง ก่อน นอน
-0.3679768	<s> ก๋วยเตี๋ยว รอบ
-0.3679768	<s> ก๋วยเตี๋ยว อด
-0.06694679	ระหว่าง ก๋วยเตี๋ยว เรือ
-0.544068	ร้าน ก๋วยเตี๋ยว กัญชา
-0.544068	ร้าน ก๋วยเตี๋ยว ที่
-0.544068	ร้าน ก๋วยเตี๋ยว รุจิศรี
-0.06694679	โกวาจี ก๋วยเตี๋ยว ใน
-0.4149733	ร้าน ขนม ปัง
-0.3357921	ร้าน ขนม หวาน
-0.06694679	เอง ขนาด นั้น
-0.06694679	ดื่ม ขวด ละ
-0.06694679	สยอง ขวัญ เรื่อง
-1.574031	<s> ขอ ข้อมูล
-1.875061	<s> ขอ งีบ
-0.9719713	<s> ขอ นอน
-1.653213	<s> ขอ ประวัติ
-1.875061	<s> ขอ พัก
-1.574031	<s> ขอ พิกัด
-1.09691	<s> ขอ รอบ
-0.8750613	<s> ขอ ราย
-1.574031	<s> ขอ รายชื่อ
-1.148063	<s> ขอ สูตร
-0.8470325	<s> ขอ อีก
-1.31079	<s> ขอ เบอร์
-1.653213	<s> ขอ เพลง
-1.273001	<s> ขอ เรื่อง
-1.273001	<s> ขอ เส้น
-1.653213	<s> ขอ แผนที่
-1.273001	<s> ขอ โปรโมชัน
-0.09691001	โกวาจี ขอ สูตร
-0.07918125	<s> ของ หาย
-0.09691001	ซื้อ ของ เก้า
-0.1512677	ทั้งหมด ของ วัน
-0.7533277	ทั้งหมด ของ สัปดาห์
-0.07918125	ประวัติ ของ ที่
-0.04139268	ฝาก ของ ได้
-0.3679768	ย่อ ของ เรื่อง
-0.3679768	ย่อ ของ แฮรี่พอตเตอร์
-0.06694679	รับ ของ สตาร์วอร์
-0.07918125	ร้าน ของ หวาน
-0.06694679	สาขา ของ เอส
-0.09691001	สุดท้าย ของ วัน
-0.07918125	หนัง ของ ที่
-0.06694679	หมด ของ โรงหนัง
-0.07918125	เจ้า ของ ที่
-0.5228788	เพลง ของ ศิลปิน
-0.69897	แรก ของ พรุ่งนี้
-0.69897	แรก ของ มะรืน
-0.69897	แรก ของ วันนี้
-0.69897	แรก ของ เมื่อวาน
-0.07918125	ซื้อ ของขวัญ ได้
-0.3853509	<s> ขั้น ตอน
-0.7533277	<s> ขั้น ต่อ
-0.6283889	<s> ขั้น ถัด
-0.06694679	บัญชี ขาย ทุก
-0.06694679	ผลไม้ ขาย ด้วย
-0.06694679	ฟรุตตี้ ขาย อะไร
-0.06694679	มา ขาย ที่
-0.3679768	ร้าน ขาย น้ำ
-0.3679768	ร้าน ขาย ผลไม้
-0.06694679	วิศวะ ขาย ไม้
-0.06694679	ไผ่ทอง ขาย ยัง
-0.06694679	ไหน ขาย ข้าวโพด
-0.06694679	<s> ขี้เกียจ สระ
-0.06694679	ขอ ข้อมูล หนัง
-0.06694679	ข้าง ข้าง มั้ย
-0.06694679	คน ข้าง ข้าง
-0.06694679	ส้มตำ ข้าง แอม
-0.2498775	<s> ข้าว มัน
-0.4259687	<s> ข้าว หมู
-0.4771213	กิน ข้าว </s>
-0.3521825	กิน ข้าว กี่
-0.09691001	วิธีทำ ข้าว ผัด
-0.09691001	แคลอรี่ ข้าว ผัด
-0.06694679	ร้าน ข้าวมัน ไก่
-0.06694679	ขาย ข้าวโพด คลุก
-0.5228788	<s> คณะ บัญชี
-0.2218488	<s> คณะ วิศวะ
-0.8016323	ที่ คณะ บัญชี
-0.1026623	ที่ คณะ วิศวะ
-0.3679768	อาหาร คณะ อักษร
-0.3679768	อาหาร คณะ แพทย์
-0.06694679	กี่ คน แล้ว
-0.06694679	ทำ คน ร้อง
-0.07918125	น้ำ คน พิการ
-0.3679768	มี คน ข้าง
-0.3679768	มี คน นั่ง
-0.06694679	สอง คน ที่
-0.06694679	ห้า คน มั้ย
-0.09691001	ทุก ครั้ง ถ้า
-0.4259687	ประชุม ครั้ง ต่อ
-0.4259687	ประชุม ครั้ง หน้า
-0.1249387	ประชุม คราว ที่
-0.06694679	<s> ครีมเมอรี่ มี
-0.3521825	ชั่วโมง ครึ่ง </s>
-0.4771213	ชั่วโมง ครึ่ง ต้อง
-0.09691001	สอง ครึ่ง เป็น
-0.1249387	สาม ครึ่ง เรียก
-0.9461246	อีก ครึ่ง ชั่ว
-0.07106335	อีก ครึ่ง ชั่วโมง
-0.05799195	เตือน ครึ่ง ชั่วโมง
-0.09691001	เวลา ครึ่ง ชั่วโมง
-0.5118834	โมง ครึ่ง </s>
-0.2566109	โมง ครึ่ง นะ
-1.034762	โมง ครึ่ง หน่อย
-0.06694679	ข้าวโพด คลุก เนย
-0.06694679	ไหน คล้าย กับ
-0.09691001	นัด ควร นอน
-0.03476211	มี ความ ยาว
-0.09691001	วิธีทำ คะน้า หมู
-0.5228788	ได้ คะแนน รีวิว
-0.2218488	ได้ คะแนน ไอ
-0.0211893	<s> คำนวณ แคลอรี่
-0.07918125	<s> คิดส์ซาเนีย อยู่
-0.06694679	เรื่อง คิล บิล
-0.06694679	นี้ คิว ยาว
-0.6368221	เที่ยง คืน </s>
-0.5118834	เที่ยง คืน ทุก
-0.6368221	เที่ยง คืน มี
-0.02632894	นี้ คือ อะไร
-0.06694679	พรีวิเลจ คือ แถว
-0.09691001	แรก คือ งาน
-0.06694679	ได้ คือ แถว
-0.0234811	<s> คุย แบบ
-0.09691001	เพื่อน คุย งาน
-0.06694679	เหรอ คุย ดี
-0.06694679	ชั่วโมง ค่อย ปลุก
-0.06694679	นาที ค่อย ปลุก
-0.5797836	<s> ค่า จอด
-0.1995724	<s> ค่า สมัคร
-0.09691001	อาหาร ค่ำ หน่อย
-0.3679768	ชาบู งบ สาม
-0.3679768	ชาบู งบ ห้า
-0.3679768	สเต็ก งบ หนึ่ง
-0.3679768	สเต็ก งบ ห้า
-0.03476211	ใช้ งบ ประมาณ
-0.3899711	<s> งาน ต่อไป
-0.9542425	<s> งาน พรุ่งนี้
-0.9542425	<s> งาน วันนี้
-0.6532125	<s> งาน เยอะ
-0.09691001	กี่ งาน </s>
-0.09691001	คือ งาน อะไร
-0.09691001	คุย งาน ตอน
-0.04139268	จัด งาน อะไร
-0.09691001	นี้่ิ งาน แรก
-0.06694679	บอก งาน วันนี้
-0.09691001	ประชุม งาน วัน
-0.7047223	มี งาน </s>
-1.403692	มี งาน บ่าย
-1.102662	มี งาน มั้ย
-1.403692	มี งาน หรือ
-0.3894519	มี งาน อะไร
-1.403692	มี งาน เจ็ด
-1.403692	มี งาน เตือน
-1.278754	มี งาน ใน
-0.30103	ยกเลิก งาน ประชุม
-0.4771213	ยกเลิก งาน หลัง
-0.4259687	ย้าย งาน ตอน
-0.4259687	ย้าย งาน วัน
-0.07918125	สมัคร งาน บ้าง
-0.39794	สร้าง งาน ตอน
-0.39794	สร้าง งาน บน
-0.3521825	ส่ง งาน วัน
-0.4771213	ส่ง งาน เที่ยง
-0.39794	เช็ค งาน วัน
-0.39794	เช็ค งาน วันศุกร์
-0.09691001	เลิก งาน ตอน
-0.1249387	เหลือ งาน อะไร
-0.1249387	ขอ งีบ สัก
-0.06694679	<s> ง่วง จัง
-0.06694679	จะ จบ กี่
-0.09691001	ไป จบ กี่
-0.06694679	ไหน จบ ก่อน
-0.06694679	ห่าง จอ ที่
-0.2218488	<s> จอง ตั๋ว
-0.5228788	<s> จอง ที่
-0.06694679	ที่ จอง ได้
